,space_group_shell,coer_oe,exc_bias_oe,fc_field_t,h_range_max_koe,mr (emu/g),sat_em_g,shape,space_group_core,temperature_k,ver_shift_emu_g,sphericity,area/volume
0,0.9759484021395547,7.11063000132766,-1132.0,0.6751492257372639,0.48600887799797904,0.032611784690985156,0.4490193694719772,-0.4324717029926405,-0.11053487428025947,-0.7200920490624405,-0.12404662482967482,0.3024311798165188,0.8307533196792068
1,0.9759484021395547,1.5608845877974031,-406.0,0.6751492257372639,0.48600887799797904,1.480795664183427,1.3321854121548544,-0.4324717029926405,0.5530050940969494,-0.7200920490624405,-0.12404662482967482,0.3024311798165188,0.9399676398036979
2,-1.1350012184335831,-0.5966344391666194,51.34000000000003,-0.5848109010364404,-1.0239380811875645,-0.6429085297768999,-0.9720903159076811,-0.4324717029926405,0.5870327847829602,1.7015915294550445,-0.12404662482967482,0.3024311798165188,-0.24854113802165198
3,-1.1350012184335831,-0.5784867716643756,108.17999999999996,-0.5848109010364404,-1.0239380811875645,-0.6422211896673337,-0.9681002280668802,-0.4324717029926405,0.5870327847829602,1.7015915294550445,-0.12404662482967482,0.3024311798165198,0.20525312260257272
4,-1.1350012184335831,-0.5923972085433891,8.919999999999959,-0.5848109010364404,-1.0239380811875645,-0.6261177928146371,-0.5770716196683894,-0.4324717029926405,0.5870327847829602,1.7015915294550445,-0.12404662482967482,0.3024311798165168,0.09810725551074201
5,-1.1350012184335831,-0.5904381484124128,14.379999999999995,-0.5848109010364404,-1.0239380811875645,-0.611153416714936,-0.5029699883392292,-0.4324717029926405,0.5870327847829602,1.7015915294550445,-0.12404662482967482,0.3024311798165168,-0.29476092382597097
6,-1.1350012184335831,-0.5731728904309202,2.830000000000041,-0.5848109010364404,-1.0239380811875645,-0.18798756868821972,1.2848743706139294,-0.4324717029926405,0.5870327847829602,1.7015915294550445,-0.12404662482967482,0.3024311798165168,-0.4070089750650321
7,-1.1350012184335831,-0.3732016888178913,0.0,-0.5848109010364404,0.8634956177943649,-0.6072061206571409,-0.9996361723229246,-0.4324717029926405,-2.2202516968129236,-0.7200920490624405,-0.12722505987265795,0.3024311798165168,-0.5566730433837798
8,-1.1350012184335831,-0.35544250349459444,-255.0,-0.45881488835907003,0.8634956177943649,-0.6072061206571409,-0.9987982538763566,-0.4324717029926405,-2.2202516968129236,-0.7200920490624405,-0.13289389225520204,0.3024311798165168,-0.5566730433837798
9,-1.1350012184335831,-0.35100270716377024,-296.0,-0.3328188756816996,0.8634956177943649,-0.6072061206571409,-0.9987982538763566,-0.4324717029926405,-2.2202516968129236,-0.7200920490624405,-0.12081583909186609,0.3024311798165168,-0.5566730433837798
10,-1.1350012184335831,-0.3412906526900923,-344.0,-0.0808268503269587,0.8634956177943649,-0.6072061206571409,-0.9979603354297882,-0.4324717029926405,-2.2202516968129236,-0.7200920490624405,-0.11597339982049765,0.3024311798165168,-0.5566730433837798
11,-1.1350012184335831,-0.3046623329607926,-635.0,0.6751492257372639,0.8634956177943649,-0.6089244709310566,-0.9962825034927315,-0.4324717029926405,-2.2202516968129236,-0.7200920490624405,-0.097337113362884,0.3024311798165168,-0.5566730433837798
12,-1.1350012184335831,-0.35544250349459444,0.0,-0.5848109010364404,0.8634956177943649,-0.640404647949194,-1.0188313448999207,-0.4324717029926405,-2.2202516968129236,-0.7200920490624405,-0.1801366549999657,0.3024311798165188,-0.6876291031626842
13,-1.1350012184335831,-0.33019116186303177,-229.0,-0.45881488835907003,0.8634956177943649,-0.640404647949194,-1.0188313448999207,-0.4324717029926405,-2.2202516968129236,-0.7200920490624405,-0.12240131727801293,0.3024311798165188,-0.6876291031626842
14,-1.1350012184335831,-0.3215890564720599,-350.0,-0.3328188756816996,0.8634956177943649,-0.640404647949194,-1.0188313448999207,-0.4324717029926405,-2.2202516968129236,-0.7200920490624405,-0.1207560097263511,0.3024311798165188,-0.6876291031626842
15,-1.1350012184335831,-0.30549479477282215,-502.0,-0.0808268503269587,0.8634956177943649,-0.640404647949194,-1.0185463386255778,-0.4324717029926405,-2.2202516968129236,-0.7200920490624405,-0.11974638918328594,0.3024311798165188,-0.6876291031626842
16,0.9573497270684258,-0.42758919387048777,-207.23848058252432,-0.3328188756816996,-1.3070531360348538,0.41226654899604775,-0.27924006298003434,-0.4324717029926405,0.5530050940969494,-0.6954647584334491,-0.12404662482967482,0.3024311798165188,-0.6090554672953417
17,0.9573497270684258,-0.4256467829757522,-130.0,-0.3328188756816996,-1.3070531360348538,0.41226654899604775,-0.2849401884668929,-0.4324717029926405,0.5530050940969494,-0.6954647584334491,-0.12404662482967482,0.3024311798165188,-0.6090554672953417
18,0.9573497270684258,-0.4983484478929986,-137.00000000000006,-0.3328188756816996,-1.3070531360348538,-0.20633954961364045,-0.6041472157309672,-0.4324717029926405,0.5530050940969494,-0.6954647584334491,-0.12404662482967482,0.3024311798165188,-0.6090554672953417
19,0.9573497270684258,-0.4517305864193445,-38.0,-0.3328188756816996,-1.3070531360348538,-0.11796724981225647,-0.6183975294481133,-0.4324717029926405,0.5530050940969494,-0.6954647584334491,-0.12404662482967482,0.3024311798165188,-0.6090554672953417
20,0.9573497270684258,-0.4553379209381391,-73.0,-0.3328188756816996,-1.3070531360348538,-0.005047088954932384,-0.5813467137835332,-0.4324717029926405,0.5530050940969494,-0.6954647584334491,-0.12404662482967482,0.3024311798165188,-0.6090554672953417
21,0.9573497270684258,-0.3937357468479532,-81.0,-0.3328188756816996,-1.3070531360348538,-0.014866233377308352,-0.567096400066387,-0.4324717029926405,0.5530050940969494,-0.6954647584334491,-0.12404662482967482,0.3024311798165188,-0.6090554672953417
22,-1.1350012184335831,-0.6011713560421804,-109.0,-0.5848109010364404,-0.6464513413911787,-0.6364180753137094,-0.6739737529449833,2.9187316189419628,0.5870327847829602,1.7015915294550445,-0.12404662482967482,-1.167682947653401,4.693462170807685
23,-1.1350012184335831,-0.600774549245113,0.0,-0.5848109010364404,-0.6464513413911787,-0.6265989308913334,-0.5069600761800301,2.9187316189419628,0.5870327847829602,1.7015915294550445,-0.12404662482967482,-1.1676829476534,3.249972307480914
24,-1.1350012184335831,-0.5973170578524836,0.0,-0.5848109010364404,-0.6464513413911787,-0.5824127809906414,-0.33852136804336247,0.40532912749101024,0.5870327847829602,1.7015915294550445,-0.12404662482967482,-1.8583297383136181,0.2454328227620091
25,-1.1350012184335831,-0.5869612329108362,0.0,-0.5848109010364404,-0.6464513413911787,-0.45623677516310973,-0.19886829361532993,0.40532912749101024,0.5870327847829602,1.7015915294550445,-0.12404662482967482,-1.8583297383136181,-0.11618447867291981
26,-1.1350012184335831,-0.21503394453227895,0.0,-0.45881488835907003,-0.8351947112893716,0.927771631170788,1.1001903048397148,-0.4324717029926405,0.5870327847829602,1.7015915294550445,-0.12404662482967482,0.3024311798165188,-0.28144335842472673
27,-1.1350012184335831,-0.603516123479397,0.0,-0.45881488835907003,-0.8351947112893716,-0.6418186047460162,-1.0339366774400955,-0.4324717029926405,-0.5358810078553934,1.7015915294550445,-0.12404662482967482,0.3024311798165188,-0.38720049543460955
28,0.3621921247922988,-0.3531533722551486,0.0,1.9351093525109682,0.8634956177943649,0.880737929387607,1.0886475507288265,-0.4324717029926405,0.5870327847829602,2.1120463732715673,-0.12404662482967482,0.3024311798165168,-0.49847035014871127
29,0.3621921247922988,-0.23825491180430156,112.78100000000006,1.9351093525109682,0.8634956177943649,1.2823409362627856,1.2189524193584111,-0.4324717029926405,0.5870327847829602,1.7015915294550445,-0.12404662482967482,0.3024311798165168,-0.49847035014871127
30,0.3621921247922988,-0.15494962581269361,226.736,1.9351093525109682,0.8634956177943649,1.4005143393860808,1.3355769868195353,-0.4324717029926405,0.5870327847829602,1.2911366856385216,-0.12404662482967482,0.3024311798165168,-0.6506111288178875
31,0.3621921247922988,0.11635175988226312,170.0,1.9351093525109682,0.8634956177943649,2.1060689618559087,1.4108471438735015,-0.4324717029926405,0.5870327847829602,0.8806818418219988,-0.12404662482967482,0.3024311798165168,-0.49847035014871127
32,0.3621921247922988,1.0760310797443324,169.13099999999997,1.9351093525109682,0.8634956177943649,2.688246034658582,1.442197834051223,-0.4324717029926405,0.5870327847829602,0.059772154188952965,-0.12404662482967482,0.3024311798165168,-0.49847035014871127
33,0.3621921247922988,1.5976880019944997,112.77999999999996,1.9351093525109682,0.8634956177943649,2.853600426731394,1.456448147768369,-0.4324717029926405,0.5870327847829602,-0.35068268962756993,-0.12404662482967482,0.3024311798165168,-0.6506111288178875
34,0.3621921247922988,0.5388684462960321,56.17999999999995,1.9351093525109682,0.8634956177943649,2.4519974198562147,1.452144553025791,-0.4324717029926405,0.5870327847829602,0.47022699800547585,-0.12404662482967482,0.3024311798165168,-0.49847035014871127
35,0.3621921247922988,1.8844347454062171,90.0,1.9351093525109682,0.8634956177943649,2.9481096917967626,1.4658533548216859,-0.4324717029926405,0.5870327847829602,-0.7200920490624405,-0.12404662482967482,0.3024311798165168,-0.6506111288178875
36,0.9573497270684258,-0.45411142720174885,50.0,-0.45881488835907003,-1.1749327771061189,-0.4289346440966933,-0.5137432255093918,-0.4324717029926405,0.025575888463783385,-0.7200920490624405,-0.12404662482967482,0.3024311798165188,-0.6090554672953417
37,0.9573497270684258,-0.4830866480057904,-142.77999999999997,-0.45881488835907003,-1.1749327771061189,-0.4289346440966933,-0.5137432255093918,-0.4324717029926405,0.025575888463783385,-0.7200920490624405,-0.12404662482967482,0.3024311798165188,-0.6090554672953417
38,0.9573497270684258,-0.5258196876899733,-137.21000000000004,-0.45881488835907003,-1.1749327771061189,-0.4289346440966933,-0.5137432255093918,-0.4324717029926405,0.025575888463783385,-0.7200920490624405,-0.12404662482967482,0.3024311798165188,-0.6090554672953417
39,0.9573497270684258,-0.45562650769964264,-71.0,-0.45881488835907003,-1.1749327771061189,-0.4289346440966933,-0.5137432255093918,-0.4324717029926405,0.025575888463783385,-0.7200920490624405,-0.12404662482967482,0.3024311798165188,-0.6090554672953417
40,-1.1350012184335831,-0.14250307303013401,-346.379,-0.3328188756816996,-1.3976499535859865,-0.0352615782570256,-0.14357707639280287,-0.4324717029926405,0.484949712724928,-0.7447193396914319,-0.12404662482967482,0.3024311798165188,-0.5147671042545304
41,-1.1350012184335831,-0.2364587367012125,-952.57,-0.3328188756816996,-1.3976499535859865,-0.08099129766091513,0.549877389836451,-0.4324717029926405,0.484949712724928,-0.7447193396914319,-0.12404662482967482,0.3024311798165188,-0.5147671042545304
42,-1.1350012184335831,-0.306365549828205,-629.898,-0.3328188756816996,-1.3976499535859865,0.1373305051695197,-0.466204178948992,-0.4324717029926405,0.484949712724928,-0.7447193396914319,-0.12404662482967482,0.3024311798165188,-0.5147671042545304
43,-1.1350012184335831,-0.35880079318795693,-519.698,-0.3328188756816996,-1.3976499535859865,0.1373305051695197,-0.466204178948992,-0.4324717029926405,0.484949712724928,-0.7447193396914319,-0.12404662482967482,0.3024311798165188,-0.5147671042545304
44,-1.1350012184335831,-0.37977813713292463,-472.1585,0.6751492257372639,-1.3976499535859865,-0.3536267159492805,-0.15269727717177642,-0.4324717029926405,0.484949712724928,-0.7447193396914319,-0.12404662482967482,0.3024311798165168,-1.0097810102187887
45,-1.1350012184335831,-0.40991464216474727,-278.3,0.6751492257372639,-1.3976499535859865,-0.3536267159492805,-0.15269727717177642,-0.4324717029926405,0.484949712724928,-0.7447193396914319,-0.12404662482967482,0.3024311798165168,-1.0097810102187887
46,-1.1350012184335831,-0.4270161826565408,-185.144,0.6751492257372639,-1.3976499535859865,-0.3536267159492805,-0.15269727717177642,-0.4324717029926405,0.484949712724928,-0.7447193396914319,-0.12404662482967482,0.3024311798165168,-1.0097810102187887
47,-1.1350012184335831,-0.4356834975561217,-108.06499999999994,0.6751492257372639,-1.3976499535859865,-0.3536267159492805,-0.15269727717177642,-0.4324717029926405,0.484949712724928,-0.7447193396914319,-0.12404662482967482,0.3024311798165168,-1.0097810102187887
48,-1.1350012184335831,-0.5632804692313026,-76.83000000000004,-0.3328188756816996,1.6184690973871367,-0.6422113705229113,-0.8407024234355934,3.756532449425613,-1.7949055632377897,-0.7200920490624405,-0.1109589511232736,1.8447723801037001,-0.8825919333319028
49,0.9759484021395547,-0.2744162204570527,-440.0,0.6751492257372639,-1.250430125065396,0.15304113624532123,0.6726808933253298,-0.4324717029926405,0.5530050940969494,-0.7200920490624405,0.03450119378501412,0.3024311798165168,-0.8629087524052176
50,0.9759484021395547,-0.2744162204570527,-551.72,-0.3328188756816996,-1.250430125065396,0.15304113624532123,0.6726808933253298,-0.4324717029926405,0.5530050940969494,-0.7200920490624405,-0.12404662482967482,0.3024311798165168,-0.8629087524052176
51,0.8364583391060875,-0.021966626213681603,-551.72,0.6751492257372639,-1.250430125065396,11.530483778452396,9.923129539673594,-0.4324717029926405,0.6210604754689708,-0.7200920490624405,20.69657257438231,0.3024311798165188,0.13351597553679734
52,0.9759484021395547,0.726102871190101,-96.76699999999994,-0.5848109010364404,-0.26896460159479274,-0.3909394647543094,-0.039834792531978726,-0.4324717029926405,0.5530050940969494,1.7015915294550445,-0.12404662482967482,0.3024311798165188,-0.26296812318600576
53,0.9759484021395547,0.7021905721319149,-207.23848058252432,-0.5848109010364404,-0.26896460159479274,-0.2036883806195989,0.13116897207377531,-0.4324717029926405,0.5530050940969494,1.7015915294550445,-0.12404662482967482,0.3024311798165188,-0.26296812318600576
54,0.9759484021395547,0.7006544026014497,-207.23848058252432,-0.5848109010364404,-0.26896460159479274,-0.11305767760106838,0.4731765012852834,-0.4324717029926405,0.5530050940969494,1.7015915294550445,-0.12404662482967482,0.3024311798165188,-0.26296812318600576
55,0.9759484021395547,-0.5999087889606023,-93.23059999999998,-0.5848109010364404,-0.26896460159479274,-0.6292991956074868,0.03711690154061067,-0.4324717029926405,0.5530050940969494,0.9627728105853034,-0.12404662482967482,0.3024311798165188,-0.26296812318600576
56,0.9759484021395547,-0.5999087889606023,-82.03059999999994,0.6751492257372639,-0.26896460159479274,-0.6288573341084799,0.03711690154061067,-0.4324717029926405,0.5530050940969494,0.9627728105853034,-0.12404662482967482,0.3024311798165188,-0.26296812318600576
57,0.9759484021395547,-0.45894525545693377,-82.03059999999994,-0.5848109010364404,-0.26896460159479274,-0.49134021647310383,0.01716646233660595,-0.4324717029926405,0.5530050940969494,0.22395409171556213,-0.12404662482967482,0.3024311798165188,-0.26296812318600576
58,0.9759484021395547,-0.44812325190054975,0.0,0.6751492257372639,-0.26896460159479274,-0.5058234544961085,0.01716646233660595,-0.4324717029926405,0.5530050940969494,0.22395409171556213,0.6219507764351941,0.3024311798165188,-0.26296812318600576
59,0.9759484021395547,0.007510846550284363,-2.5,-0.5848109010364404,-0.26896460159479274,-0.39049760325530236,-0.09968611014399269,-0.4324717029926405,0.5530050940969494,-0.7447193396914319,-0.12404662482967482,0.3024311798165188,-0.26296812318600576
60,0.9759484021395547,-0.4291153738592086,0.0,-0.5848109010364404,-0.26896460159479274,0.011154499341988026,0.5244776306670095,-0.4324717029926405,0.5530050940969494,-0.7447193396914319,-0.12404662482967482,0.3024311798165188,-0.26296812318600576
61,0.9759484021395547,-0.3906833868705116,-719.0,0.6751492257372639,-0.26896460159479274,0.45218137107300616,0.5244776306670095,-0.4324717029926405,0.5530050940969494,-0.7447193396914319,1.5938040325191012,0.3024311798165188,-0.26296812318600576
62,-1.1350012184335831,-0.5793691811851268,0.0,-0.5848109010364404,-0.8351947112893716,-0.5131878128128906,-1.032226639794038,3.756532449425613,0.5530050940969494,1.7015915294550445,-0.12404662482967482,-2.5027669379368476,2.1987483287061775
63,-1.1350012184335831,-0.5972976337435363,-207.23848058252432,-0.5848109010364404,-0.8351947112893716,-0.5622835349247706,0.9652113333109062,-0.4324717029926405,0.5870327847829602,1.7015915294550445,-0.12404662482967482,0.3024311798165168,-0.6519138141320737
64,0.9759484021395547,-0.5932241206100051,0.0,-0.5848109010364404,-0.8351947112893716,-0.5770122515583346,-0.14443209521583167,-0.4324717029926405,0.5530050940969494,1.7015915294550445,-0.12404662482967482,0.3024311798165188,-0.8086161895328137
65,0.9573497270684258,-0.5756869251032495,-329.0,-0.5848109010364404,-0.8351947112893716,-0.5372447166477118,0.10352336346251177,-0.4324717029926405,0.5870327847829602,1.7015915294550445,-0.12404662482967482,0.3024311798165188,-0.6350404492357226
66,0.9759484021395547,-0.5769633665483614,0.0,0.02349784816990405,-0.8351947112893716,-0.2210682662472045,-0.09683604740056341,-0.4324717029926405,0.5530050940969494,-0.26859172086426536,1.483867573385331,0.3024311798165188,-0.8086161895328137
67,0.9573497270684258,-0.5632305215225809,0.0,-0.27889258225578506,-0.8351947112893716,-0.24267038397643168,0.24203641279317253,-0.4324717029926405,0.5870327847829602,-0.26859172086426536,-1.6496954454615875,0.3024311798165188,-0.6350404492357226
68,-0.6235376539775365,-0.3537775798705354,0.0,0.6751492257372639,0.48600887799797904,-0.641499482552289,-0.15394275459065493,-0.4324717029926405,-0.5358810078553934,-0.7447193396914319,-0.11320255233008523,0.3024311798165168,-0.33611546901930933
69,0.8457576766416519,-0.4788188937827856,0.0,-0.5848109010364404,0.10852213820159314,0.22079323275971577,0.44467587385099105,-0.4324717029926405,-0.9612271414305273,-0.7447193396914319,-0.12404662482967482,0.3024311798165198,0.015879031928639015
70,0.8457576766416519,-0.4709843181825049,-329.43,-0.3328188756816996,0.10852213820159314,0.44319685392653213,0.4271479879789012,-0.4324717029926405,-0.9612271414305273,-0.7447193396914319,0.5808180876436475,0.3024311798165198,0.015879031928639015
71,0.8457576766416519,-0.4727252733187293,145.17999999999995,-0.0808268503269587,0.8634956177943649,0.4358324956097502,0.44980598678916367,-0.4324717029926405,-0.9612271414305273,-0.7447193396914319,0.492943707043525,0.3024311798165198,0.015879031928639015
72,0.8457576766416519,-0.477703394954666,-207.23848058252432,0.423157200382523,0.8634956177943649,0.4349978683338483,0.6873017151991216,-0.4324717029926405,-0.9612271414305273,-0.7447193396914319,0.3994603234263735,0.3024311798165198,0.015879031928639015
73,0.8457576766416519,-0.48835890614864413,-207.23848058252432,-0.5848109010364404,0.10852213820159314,0.19575441448265687,0.396224807212694,-0.4324717029926405,-0.9612271414305273,-0.6790465646807883,-0.12404662482967482,0.3024311798165198,0.015879031928639015
74,0.8457576766416519,-0.48447408435917294,-1500.0,-0.3328188756816996,0.10852213820159314,0.32968754440386566,0.3955122915268367,-0.4324717029926405,-0.9612271414305273,-0.6790465646807883,0.3519707645488606,0.3024311798165198,0.015879031928639015
75,0.8457576766416519,-0.4866273855796226,-207.23848058252432,0.17116517502778217,0.8634956177943649,0.3091655325610997,0.35660893507902763,-0.4324717029926405,-0.9612271414305273,-0.6790465646807883,0.32467361653265236,0.3024311798165198,0.015879031928639015
76,0.8457576766416519,-0.5882204701451662,9.409999999999968,-0.5848109010364404,0.10852213820159314,-0.48643064426191596,0.4161752464166987,-0.4324717029926405,-0.9612271414305273,0.059772154188952965,-0.12404662482967482,0.3024311798165198,0.015879031928639015
77,0.8457576766416519,-0.588592858062414,-84.70000000000005,-0.3328188756816996,0.10852213820159314,-0.47906628594513395,0.3548988974329702,-0.4324717029926405,-0.9612271414305273,0.059772154188952965,-0.14274330155310513,0.3024311798165198,0.015879031928639015
78,0.8457576766416519,-0.5888092981335418,-71.36000000000001,-0.0808268503269587,0.8634956177943649,-0.47759341428177754,0.4047749954429818,-0.4324717029926405,-0.9612271414305273,0.059772154188952965,-0.24744469120431484,0.3024311798165198,0.015879031928639015
79,0.8457576766416519,-0.597934467029739,-64.76400000000001,-0.5848109010364404,0.10852213820159314,-0.5724954451240416,0.4589261875681372,-0.4324717029926405,-0.9612271414305273,1.7015915294550445,-0.12404662482967482,0.3024311798165198,0.015879031928639015
80,0.8457576766416519,-0.5979996765383478,5.0,-0.3328188756816996,0.10852213820159314,-0.5726918280124891,0.27680717826300916,-0.4324717029926405,-0.9612271414305273,1.7015915294550445,-0.15003500547524296,0.3024311798165198,0.015879031928639015
81,0.8457576766416519,-0.597740503427536,-49.72500000000002,-0.0808268503269587,0.8634956177943649,-0.5658429747778818,0.2674019712096927,-0.4324717029926405,-0.9612271414305273,1.7015915294550445,-0.13704081515245892,0.3024311798165198,0.015879031928639015
82,-1.1350012184335831,-0.4303363178501853,-41.96000000000004,0.17116517502778217,-0.6464513413911787,0.9788311821671432,0.5871790110224527,-0.4324717029926405,0.5870327847829602,-0.7200920490624405,0.5864270906606766,0.3024311798165188,-0.13761365209128612
83,-1.1350012184335831,1.7096177648800142,2.419999999999959,0.17116517502778217,-0.6464513413911787,1.4923724354574082,0.5301777561538681,-0.4324717029926405,0.5870327847829602,-0.7200920490624405,0.27793192472407663,0.3024311798165168,-0.23863689820644063
84,-1.1350012184335831,2.3822469089998815,2.419999999999959,0.17116517502778217,-0.6464513413911787,1.1472295090108917,0.4161752464166987,-0.4324717029926405,0.5870327847829602,-0.7200920490624405,-0.12404662482967482,0.3024311798165188,-0.3201072579767268
85,-1.1350012184335831,3.4375309993826595,2.419999999999959,0.17116517502778217,-0.6464513413911787,0.9385726900354016,0.24517148181094467,-0.4324717029926405,0.5870327847829602,-0.7200920490624405,0.33963095791139664,0.3024311798165168,-0.3733345596933137
86,-1.1350012184335831,-0.2650981979077354,1.3550000000000182,1.0531372637693752,0.48600887799797904,-0.6409103338869464,-1.0014744627924366,-0.4324717029926405,-0.5358810078553934,-0.6790465646807883,-0.11497873661881115,0.3024311798165168,-0.29476092382597097
87,-1.1350012184335831,-0.4842465447972181,-0.6585000000000036,1.0531372637693752,0.48600887799797904,-0.6427759713271979,-1.0132594722365165,-0.4324717029926405,-0.5358810078553934,0.3060450604788667,-0.11825065504541145,0.3024311798165168,-0.29476092382597097
88,-1.1350012184335831,-0.18728521746462767,-0.6589999999999918,1.0531372637693752,0.48600887799797904,-0.6420640833565757,-1.0189453474096577,-0.4324717029926405,-0.5358810078553934,1.7015915294550445,-0.122924824226269,0.3024311798165168,-0.29476092382597097
89,-1.1350012184335831,-0.22559788492693378,-15.0,-0.5848109010364404,0.48600887799797904,-0.6404930202489956,-1.002015974713688,-0.4324717029926405,-0.5358810078553934,-0.6790465646807883,-0.12404662482967482,0.3024311798165168,-0.29476092382597097
90,-1.1350012184335831,-0.35327255303790406,-52.0,-0.5848109010364404,0.48600887799797904,-0.6420640833565757,-1.0134162256874049,-0.4324717029926405,-0.5358810078553934,0.3060450604788667,-0.12404662482967482,0.3024311798165168,-0.29476092382597097
91,-1.1350012184335831,0.037421199456505676,-70.0,-0.5848109010364404,0.48600887799797904,-0.6413767432470092,-1.0182043310963662,-0.4324717029926405,-0.5358810078553934,1.7015915294550445,-0.12404662482967482,0.3024311798165168,-0.29476092382597097
92,-1.1350012184335831,0.5063219643183838,-20.0,-0.23202206553980326,-0.26896460159479274,1.0406917920281118,0.7581827756282068,1.243129957974661,0.6210604754689708,-0.6790465646807883,-0.12404662482967482,-0.5648302995521257,-0.4519081955606564
93,-1.1350012184335831,-0.24287979214466698,-1219.58,-0.23202206553980326,-0.26896460159479274,0.7313887427232679,0.6712558619536152,1.243129957974661,0.6210604754689708,0.47022699800547585,-0.12404662482967482,-0.5648302995521257,-0.4911950134943277
94,-1.1350012184335831,-0.36773518958556395,-1182.0,-0.2824204706107514,-0.26896460159479274,0.4490883405799578,0.541578007127585,1.243129957974661,0.6210604754689708,1.7015915294550445,-0.12404662482967482,-0.5648302995521252,-0.5258598528475671
95,-1.1350012184335831,0.20111371530128733,342.15,-0.0808268503269587,-0.26896460159479274,1.2876432742508683,1.735754296624434,1.243129957974661,0.6210604754689708,-0.6790465646807883,-0.0013964255239720268,-0.5648302995521257,-0.4519081955606564
96,-1.1350012184335831,-0.18756270473530418,0.0,-0.030428445256010486,-0.26896460159479274,0.927771631170788,1.7400293907395783,1.243129957974661,0.6210604754689708,0.47022699800547585,0.20202341722694966,-0.5648302995521257,-0.4911950134943277
97,-1.1350012184335831,-0.38162342748292344,0.0,-0.0808268503269587,-0.26896460159479274,0.3877186879401078,1.5547753124166777,1.243129957974661,0.6210604754689708,1.7015915294550445,-0.04365091491892451,-0.5648302995521252,-0.5258598528475671
98,-1.1350012184335831,0.5063358386819177,0.0,-0.23202206553980326,-0.26896460159479274,0.41717612120723585,-0.5157952706846608,1.243129957974661,0.6210604754689708,-0.6790465646807883,-0.12404662482967482,-0.5648302995521257,-0.4519081955606564
99,-1.1350012184335831,0.03463522725891349,-0.1000000000000227,-0.23202206553980326,-0.26896460159479274,0.2404315216044677,-0.6668485960864102,1.243129957974661,0.6210604754689708,0.47022699800547585,-0.12404662482967482,-0.5648302995521257,-0.4911950134943277
100,-1.1350012184335831,-0.2983494975529019,399.9500000000001,-0.2824204706107514,-0.26896460159479274,-0.06887152770037644,-0.7281249450701387,1.243129957974661,0.6210604754689708,1.7015915294550445,-0.12404662482967482,-0.5648302995521252,-0.5258598528475671
101,0.9759484021395547,-0.1537175823308899,49.89999999999998,1.1791332764467457,0.8634956177943649,-0.12778639423463242,-0.3120157845294706,-0.4324717029926405,0.5530050940969494,-0.7200920490624405,0.5752090846266185,0.3024311798165188,-0.196543878991793
102,0.9759484021395547,-0.036104602654649945,0.0,1.1791332764467457,0.8634956177943649,-0.29471184941502454,-0.48985969971945476,4.594333279909264,0.5530050940969494,-0.7200920490624405,0.5709088489802295,3.181087685737956,-0.5147671042545303
103,0.9759484021395547,-0.4143169777140302,0.0,-0.5596116985009664,0.5803805629470755,-0.15233425529057243,-0.46734420404636384,0.40532912749101024,0.5530050940969494,-0.5969555959174836,-0.12404662482967482,-1.8583297383136181,1.192525755091585
104,0.9759484021395547,-0.3373503334464858,0.0499999999999545,-0.3328188756816996,-0.6464513413911787,0.026275981752447063,0.22066094221745328,2.9187316189419628,0.5530050940969494,-0.7447193396914319,1.359347706407285,-1.1676829476534005,0.8991459586344597
105,-0.5584422912285851,-0.07712277100605205,0.0499999999999545,-0.3328188756816996,-1.0239380811875645,0.7755748926239598,-0.15383730226914807,-0.4324717029926405,0.6210604754689708,-0.7200920490624405,-0.12404662482967482,0.3024311798165188,-0.05562377118623253
106,-1.1350012184335831,-0.36432209615624284,99.95000000000005,-0.3328188756816996,-1.0239380811875645,3.1272599817830127,1.356695951748346,-0.4324717029926405,-2.2202516968129236,-0.7200920490624405,-0.040360299815600756,0.3024311798165188,-0.196543878991793
107,0.8364583391060875,-0.22563673314482852,-0.0499999999999545,0.6751492257372639,0.8634956177943649,-0.2350261800436119,-0.6063560143571246,-0.4324717029926405,0.6210604754689708,-0.5148646271541791,-0.05488761762970612,0.3024311798165188,-0.13761365209128612
108,0.8364583391060875,0.10261683370195232,-207.23848058252432,0.6751492257372639,0.8634956177943649,-0.5464943506935901,-0.6028219365552725,-0.4324717029926405,0.6210604754689708,-0.6380010802991359,-0.027800994193403736,0.3024311798165168,0.3338281631127697
109,0.9759484021395547,-0.17661305703440897,-781.28,-0.5848109010364404,0.48600887799797904,0.1535320934664401,0.07131765446176136,0.40532912749101024,0.5530050940969494,1.7015915294550445,-0.12404662482967482,-1.8583297383136181,0.6874095245158119
110,0.8364583391060875,1.4034938078696855,-1022.0,-0.0808268503269587,-0.6464513413911787,0.8417166494530847,0.3405915824609554,-0.4324717029926405,0.6210604754689708,-0.7200920490624405,0.049084601629289765,0.3024311798165168,-0.2903713352300302
111,0.8364583391060875,-0.2262344407258657,-471.0,-0.24210174655399283,-0.6464513413911787,-0.28980227720383656,-0.44277666319800385,-0.4324717029926405,0.6210604754689708,-0.7200920490624405,0.7715241902226365,0.3024311798165188,-0.4734906534812999
112,-1.1350012184335831,-0.34436521164918804,-207.23848058252432,-0.5596116985009664,-0.8351947112893716,-0.6049968131621062,-0.8225190231325149,-0.4324717029926405,-2.2202516968129236,-0.6380010802991359,-0.12591629250201786,0.3024311798165168,-0.6479554005457099
113,-1.1350012184335831,-0.5463537457200353,-207.23848058252432,-0.5596116985009664,-0.8351947112893716,-0.616951621496349,-0.8680060245176455,-0.4324717029926405,-2.2202516968129236,-0.35068268962756993,-0.12993607799755535,0.3024311798165168,-0.6479554005457099
114,-1.1350012184335831,-0.5545876255028195,-583.0,-0.5596116985009664,-0.8351947112893716,-0.6323922261005352,-0.44254865817852934,-0.4324717029926405,-2.2202516968129236,0.059772154188952965,-0.1277859601743609,0.3024311798165168,-0.6479554005457099
115,-1.1350012184335831,-0.3484220755464787,-1190.0,-0.5596116985009664,-0.8351947112893716,-0.4309248864796646,-0.7110064422105151,-0.4324717029926405,-2.2202516968129236,1.2911366856385216,-0.1238830289083448,0.3024311798165188,-0.5252501697433644
116,0.9759484021395547,-0.5738249855170101,-133.0,-0.0808268503269587,-1.0239380811875645,2.0824869805793647,0.808036073136271,-0.4324717029926405,-3.2580962627362506,-0.7200920490624405,-0.12442055836414337,0.3024311798165168,-0.7269159210963554
117,0.9759484021395547,-0.4786468516749662,-20.0,-0.0808268503269587,-1.0239380811875645,2.0824869805793647,0.808036073136271,-0.4324717029926405,-3.2580962627362506,-0.7200920490624405,-0.12521703679256152,0.3024311798165168,-0.7269159210963554
118,-1.1350012184335831,0.8532920475722956,-1071.526,-0.5848109010364404,-0.6464513413911787,-0.6432467993022508,-1.0372855011636248,-0.4324717029926405,0.484949712724928,1.7015915294550445,-0.12404662482967482,0.3024311798165168,-0.7590596812239048
119,-1.1350012184335831,0.7145484122340391,-207.23848058252432,-0.5848109010364404,-0.6464513413911787,-0.6432736546622461,-1.0372570005361905,-0.4324717029926405,0.484949712724928,1.7015915294550445,-0.12404662482967482,0.3024311798165168,-0.7918594364560977
120,-1.1350012184335831,-0.11791339979549945,-207.23848058252432,-0.5848109010364404,-0.6464513413911787,-0.6432803316804533,-1.0372570005361905,-0.4324717029926405,0.484949712724928,1.7015915294550445,-0.12404662482967482,0.3024311798165168,-0.8595089316224961
121,-1.1350012184335831,-0.3954006704720123,-207.23848058252432,1.4311253018014864,-0.6464513413911787,0.4243440966355702,0.38733261145319486,-0.4324717029926405,0.484949712724928,-0.6790465646807883,-0.1075935493130561,0.3024311798165168,-0.8595089316224961
122,-1.1350012184335831,0.8603679729745466,-1000.0,-0.5848109010364404,-1.0239380811875645,-0.6431098222375587,-1.0372284999087562,-0.4324717029926405,-2.2202516968129236,1.7015915294550445,-0.12404662482967482,0.3024311798165168,-0.7069300755231248
123,0.9759484021395547,0.1599201749948177,-207.23848058252432,0.6751492257372639,0.8634956177943649,-0.5464943506935901,-0.8001545807848256,-0.4324717029926405,0.5530050940969494,-0.7447193396914319,-0.0372989059689063,0.3024311798165168,0.10801149532595296
124,0.9759484021395547,-0.46413149254587777,-207.23848058252432,0.6751492257372639,0.8634956177943649,-0.024748220323987415,-0.33851566791787563,-0.4324717029926405,0.5530050940969494,0.059772154188952965,0.020415117541581738,0.3024311798165168,0.2664793323693332
125,-1.1350012184335831,-0.5532909274869481,-140.00000000000006,0.6751492257372639,0.8634956177943649,-0.5375333994937295,-0.19608663237774301,-0.4324717029926405,0.5870327847829602,0.8806818418219988,0.1309386523244676,0.3024311798165198,0.3626919477170997
126,-1.1350012184335831,1.0614075005796801,-964.9,0.9271412510920047,-0.26896460159479274,-0.6040148987198686,-0.9632551214030505,-0.4324717029926405,0.5870327847829602,0.47022699800547585,-0.122924824226269,0.3024311798165168,0.09810725551074201
127,-1.1350012184335831,1.0860483702157546,-932.0,-0.5344124959654922,1.2409823575907508,-0.5941957542974926,-0.19943830616401587,-0.4324717029926405,-2.2202516968129236,-0.7447193396914319,-0.12404662482967482,0.3024311798165168,-0.9215843110822998
128,-1.1350012184335831,1.8660313733840448,-865.6,0.6751492257372639,1.2409823575907508,-0.5598287488191767,-0.4210021838382044,-0.4324717029926405,-2.2202516968129236,-0.6954647584334491,-0.12404662482967482,0.3024311798165168,-0.9215843110822998
129,-1.1350012184335831,1.1564746395134535,-122.37400000000002,0.6751492257372639,1.2409823575907508,-0.5187847251336449,-0.4559439530726469,-0.4324717029926405,-2.2202516968129236,-0.6790465646807883,-0.12404662482967482,0.3024311798165168,-0.923350010764712
130,-1.1350012184335831,2.0215134571204145,-510.4,-0.5848109010364404,0.8634956177943649,1.7133031849608684,1.4393477713077938,-0.4324717029926405,0.5870327847829602,-0.7200920490624405,-0.12404662482967482,0.3024311798165188,0.44028276654594406
131,0.9573497270684258,2.698582397571106,-13.0,-0.5848109010364404,0.8634956177943649,0.829580186947028,0.5387279443841557,-0.4324717029926405,0.5870327847829602,-0.7200920490624405,-0.12404662482967482,0.3024311798165168,0.06008775428460839
132,-1.1350012184335831,2.0242883298271797,-78.0,1.1791332764467457,0.8634956177943649,1.7133031849608684,1.4393477713077938,-0.4324717029926405,0.5870327847829602,-0.7200920490624405,-0.12404662482967482,0.3024311798165188,0.44028276654594406
133,0.9573497270684258,-0.5996313016899257,-650.0,-0.5848109010364404,1.6184690973871367,-0.6432767476927391,-1.0366442370463533,-0.4324717029926405,0.6210604754689708,1.7015915294550445,-0.12404662482967482,0.3024311798165188,0.04198322989121165
134,0.9573497270684258,-0.5987988398778962,-254.0,-0.5848109010364404,1.6184690973871367,-0.6431834658207266,-1.0324546448135123,-0.4324717029926405,0.6210604754689708,1.7015915294550445,-0.12404662482967482,0.3024311798165188,0.7097880916932192
135,0.9573497270684258,-0.39234831049457064,-250.0,0.17368509528132953,1.6184690973871367,-0.64270232774403,-1.0340791805772669,-0.4324717029926405,0.6210604754689708,-0.6790465646807883,-0.12172823691596946,0.3024311798165188,0.04198322989121165
136,0.9573497270684258,-0.32741628915626664,-207.23848058252432,0.5743524155953674,1.6184690973871367,-0.6392656271961984,-1.027552536894814,-0.4324717029926405,0.6210604754689708,-0.6790465646807883,-0.12172823691596946,0.3024311798165188,0.7097880916932192
137,0.9573497270684258,-0.5782647818478343,-207.23848058252432,-0.3328188756816995,1.6184690973871367,-0.6413963815358541,-0.3160685737506269,-0.4324717029926405,0.6210604754689708,0.059772154188952965,-0.12404662482967482,0.3024311798165188,0.04198322989121165
138,0.9573497270684258,-0.5965789417124842,-800.0,-0.5848109010364404,1.6184690973871367,-0.6368108410906044,-0.3160685737506269,-0.4324717029926405,0.6210604754689708,0.059772154188952965,-0.12404662482967482,0.3024311798165188,0.7097880916932192
139,0.9573497270684258,-0.5349767676222983,-511.81,0.8011452384146344,1.6184690973871367,-0.6423439289726133,-0.973179039875671,-0.4324717029926405,0.6210604754689708,-0.7200920490624405,-0.1133259503964599,0.3024311798165188,0.04198322989121165
140,0.9573497270684258,-0.5921391453816599,-207.23848058252432,0.8011452384146344,1.6184690973871367,-0.6419658919123519,-0.9666808968206523,-0.4324717029926405,0.6210604754689708,-0.7200920490624405,-0.11332595039645989,0.3024311798165188,0.7097880916932192
141,-1.1350012184335831,-0.5716036999152445,-207.23848058252432,-0.5848109010364404,0.10852213820159314,-0.6425550405776944,0.6624702585407204,1.243129957974661,-0.5358810078553934,-0.5148646271541791,-0.12399614380252158,-0.5648302995521252,0.5834150064560931
142,-1.1350012184335831,-0.5687663925725772,-1350.0,-0.5848109010364404,0.10852213820159314,-0.6431932849651489,0.6624702585407204,1.243129957974661,-0.5358810078553934,-0.5148646271541791,-0.12358481691460613,-0.5648302995521252,0.5834150064560931
143,-1.1350012184335831,-0.5341443058102687,-502.0,-0.0808268503269587,0.10852213820159314,-0.6431049126653475,0.9682249896558086,1.243129957974661,-0.5358810078553934,0.059772154188952965,-0.12321873598436134,-0.5648302995521252,0.5834150064560931
144,-1.1350012184335831,-0.44280937066709447,-181.0,-0.0808268503269587,0.10852213820159314,-0.6391134304576516,0.42307239825579734,1.243129957974661,-0.5358810078553934,0.8806818418219988,-0.12404662482967482,-0.5648302995521252,0.5834150064560931
145,-1.1350012184335831,0.03073653110590844,-79.0,1.4311253018014864,1.6184690973871367,-0.6236531875646207,-0.872053113613315,-0.4324717029926405,0.5530050940969494,-0.7200920490624405,-0.1220460804202678,0.3024311798165198,2.4553163315310194
146,-1.1350012184335831,-0.5371023201156803,-149.24,-0.0808268503269587,-0.6464513413911787,-0.6394129143625341,-0.9924825148369173,-0.4324717029926405,-0.5358810078553934,1.7015915294550445,-0.1092762502181649,0.3024311798165168,-0.3733345596933137
147,-1.1350012184335831,-0.31445485874296675,-30.66999999999996,-0.0808268503269587,-0.6464513413911787,-0.6374490854780589,-1.0036262601637256,-0.4324717029926405,-0.5358810078553934,1.7015915294550445,-0.1152591867696626,0.3024311798165168,-0.7269159210963554
148,-1.1350012184335831,0.17691682529829547,-402.9,-0.569691379515156,-0.8351947112893716,0.22619376219202256,-0.18233792970344043,-0.4324717029926405,-2.2202516968129236,0.8232181636876855,-0.12516842543308057,0.3024311798165168,-0.3155835747589066
149,0.9759484021395547,-0.44553068833061904,-207.23848058252432,-0.3328188756816996,-0.6464513413911787,1.044373971186503,2.4397197942514546,-0.4324717029926405,0.5530050940969494,-0.7200920490624405,2.1195545819819612,0.3024311798165168,-0.5566730433837798
150,0.9759484021395547,-0.44164669900295983,-207.23848058252432,-0.3328188756816996,-0.6464513413911787,0.9312083317186196,2.2687160296457005,-0.4324717029926405,0.5530050940969494,-0.7200920490624405,1.044495670384719,0.3024311798165168,-0.5566730433837798
151,0.9759484021395547,-0.4295871022193587,-207.23848058252432,-0.3328188756816996,-0.6464513413911787,0.9731606262632212,1.9552091278684849,-0.4324717029926405,0.5530050940969494,-0.7200920490624405,1.0035499483604065,0.3024311798165168,-0.5566730433837798
152,0.9759484021395547,-0.398464129940281,-207.23848058252432,-0.3328188756816996,-0.6464513413911787,0.7274119892322056,1.5396699798765028,-0.4324717029926405,0.5530050940969494,-0.7200920490624405,0.9848532716369761,0.3024311798165168,-0.5566730433837798
153,0.9759484021395547,-0.40243830263091,-207.23848058252432,-0.3328188756816996,-0.6464513413911787,0.1384597067780929,0.5843289482790235,-0.4324717029926405,0.5530050940969494,-0.7200920490624405,0.5303370604903856,0.3024311798165168,-0.5566730433837798
154,0.9759484021395547,-0.428260713065525,0.0,-0.3328188756816996,-0.6464513413911787,-0.3241692826821525,-0.12533667483485575,-0.4324717029926405,0.5530050940969494,-0.7200920490624405,0.02552678895776759,0.3024311798165168,-0.5566730433837798
155,0.9759484021395547,-0.5419139493892111,0.0,-0.3328188756816996,-0.6464513413911787,-0.6095381674574551,-0.7651757607347187,-0.4324717029926405,0.5530050940969494,-0.7200920490624405,-0.10301286351581573,0.3024311798165168,-0.5566730433837798
156,0.9759484021395547,-0.5494826921841837,0.0,-0.3328188756816996,-0.6464513413911787,-0.6339141934860036,-0.9062538665344658,-0.4324717029926405,0.5530050940969494,-0.7200920490624405,-0.11806368827817712,0.3024311798165168,-0.5566730433837798
157,0.9759484021395547,-0.529981996750121,-207.23848058252432,-0.3328188756816996,-0.6464513413911787,-0.6407875945816668,-0.9518548704293336,-0.4324717029926405,0.5530050940969494,-0.7200920490624405,-0.12311179099350335,0.3024311798165168,-0.5566730433837798
158,-1.1350012184335831,-0.30216494752470396,0.0,-0.3328188756816996,-0.6464513413911787,-0.1397117451356081,0.27384197298474544,-0.4324717029926405,-0.8761579147155005,-0.6790465646807883,0.2943850002406953,0.3024311798165188,-0.6090554672953417
159,-1.1350012184335831,-0.4439609428404021,0.0,-0.3328188756816996,-0.6464513413911787,0.1953223721280723,-0.12533667483485575,-0.4324717029926405,-0.8761579147155005,-0.6790465646807883,0.30952930838667386,0.3024311798165168,-0.8447763748973693
160,-1.1350012184335831,-0.5277620985847089,-530.6,-0.3328188756816996,-0.6464513413911787,-0.1397117451356081,0.24360109723931506,-0.4324717029926405,-0.8761579147155005,-0.6790465646807883,0.31326864373135993,0.3024311798165168,-0.923350010764712
161,0.9573497270684258,0.20119696148249033,-906.4,1.1791332764467457,0.8634956177943649,-0.10752949929127076,-0.2469574022852114,-0.4324717029926405,0.5870327847829602,-0.7200920490624405,0.055174857105179956,0.3024311798165188,0.30609629163017754
162,0.9573497270684258,-0.4526342237163025,-249.0,-0.3328188756816996,-1.2126814510857575,-0.18179168855770045,0.11292857051582819,-0.4324717029926405,0.025575888463783385,-0.7200920490624405,0.18108313929670766,0.3024311798165188,-0.13761365209128612
163,0.9573497270684258,-0.4518075891369572,-94.0,-0.3328188756816996,-1.2126814510857575,-0.2456161273031445,0.04566708977089829,-0.4324717029926405,0.025575888463783385,-0.7200920490624405,-0.09974094508921545,0.3024311798165188,-0.13761365209128612
164,0.9573497270684258,-0.447707853456347,-1335.0,-0.3328188756816996,-1.2126814510857575,-0.24267038397643168,0.06846759171833208,-0.4324717029926405,0.025575888463783385,-0.7200920490624405,-0.5025608450955212,0.3024311798165188,-0.13761365209128612
165,0.9573497270684258,-0.5364058270662824,-1318.0,-0.3328188756816996,-1.2126814510857575,-0.5729864023451604,-0.9091039292778951,-0.4324717029926405,0.025575888463783385,-0.7200920490624405,-0.057860389228731546,0.3024311798165168,-0.7662027390300268
166,0.9573497270684258,-0.5370218488071842,-131.00000000000006,-0.3328188756816996,-1.2126814510857575,-0.5706789034059021,-0.9091039292778951,-0.4324717029926405,0.025575888463783385,-0.7200920490624405,-0.11974638918328594,0.3024311798165168,-0.7662027390300268
167,0.9573497270684258,-0.5364117652938748,-165.23000000000002,-0.3328188756816996,-1.2126814510857575,-0.5736000988715589,-0.9091039292778951,-0.4324717029926405,0.025575888463783385,-0.7200920490624405,-0.17172315047442208,0.3024311798165168,-0.7662027390300268
168,-1.1350012184335831,-0.44237377114958665,-1025.0,-0.5848109010364404,0.48600887799797904,-0.5345935476536703,-0.6537383074666356,-0.4324717029926405,-0.5358810078553934,1.9478644357449577,-0.12404662482967482,0.3024311798165188,0.42410425538588636
169,-1.1350012184335831,-0.44237377114958665,-113.5,-0.5848109010364404,0.48600887799797904,-0.3781745770052205,-0.5480009796854111,-0.4324717029926405,-0.5358810078553934,1.7015915294550445,-0.12404662482967482,0.3024311798165188,0.42410425538588636
170,-1.1350012184335831,-0.5452040049627143,-900.0,-0.5848109010364404,0.48600887799797904,0.3116203186666937,-0.029004554106947567,-0.4324717029926405,-0.5358810078553934,0.8806818418219988,-0.12404662482967482,0.3024311798165188,0.42410425538588636
171,-1.1350012184335831,-0.5245177729134132,-207.23848058252432,-0.5848109010364404,0.48600887799797904,0.9859009661512538,0.5675705793476595,-0.4324717029926405,-0.5358810078553934,-0.7200920490624405,-0.12404662482967482,0.3024311798165188,0.42410425538588636
172,-1.1350012184335831,-0.5504383583443935,250.0,-0.5845589090110858,0.2595168341201475,0.039139060945759654,0.1603935154448986,-0.4324717029926405,-0.5358810078553934,-0.728301145938771,-0.12404662482967482,0.3024311798165188,0.42410425538588636
173,-1.1350012184335831,-0.5566682250583519,-207.23848058252432,-0.5822909807828931,0.2595168341201475,0.039139060945759654,0.1603935154448986,-0.4324717029926405,-0.5358810078553934,-0.728301145938771,-0.12404662482967482,0.3024311798165188,0.42410425538588636
174,-1.1350012184335831,-0.5483044812328912,-677.0,-0.5596116985009664,0.2595168341201475,0.1254493404184447,0.1603935154448986,-0.4324717029926405,-0.5358810078553934,-0.728301145938771,0.1711739006332896,0.3024311798165188,0.42410425538588636
175,-1.1350012184335831,-0.5856181945207619,-812.5,-0.3328188756816996,-1.0239380811875645,-0.6431932849651489,-0.1099463360203379,-0.4324717029926405,0.5530050940969494,-0.6790465646807883,-0.1090892834509306,0.3024311798165188,-0.5078958875147143
176,-1.1350012184335831,-0.5863396614245208,-124.13999999999992,-0.3328188756816996,-1.0239380811875645,-0.6427146016745581,-0.1099463360203379,-0.4324717029926405,0.5530050940969494,-0.6790465646807883,-0.1165679541403027,0.3024311798165168,-0.5994342057605649
177,-1.1350012184335831,-0.5880045850485799,-123.24,-0.3328188756816996,-1.0239380811875645,-0.64270232774403,-0.1099463360203379,-0.4324717029926405,0.5530050940969494,-0.6790465646807883,-0.11843762181264574,0.3024311798165168,-0.6752464384844495
178,-1.1350012184335831,-0.5896972573997066,-148.59500000000003,-0.3328188756816996,-1.0239380811875645,-0.64270232774403,-0.41091296172646496,-0.4324717029926405,0.5530050940969494,-0.6790465646807883,-0.12217695715733186,0.3024311798165168,-0.6961697157569605
179,0.17620537408100911,0.12338253810557505,-183.82,0.6751492257372639,-0.6464513413911787,1.022359449391536,0.622405786531238,-0.4324717029926405,0.5530050940969494,-0.6790465646807883,0.2999192165508307,0.3024311798165198,-0.25821504667836986
180,-0.2794621651616506,-0.5344217930809453,-210.53,-0.3328188756816996,-1.2881787990450346,0.4009745329103154,0.8243042312757648,-0.4324717029926405,0.5870327847829602,-0.7447193396914319,-0.12404662482967482,0.3024311798165188,0.4909754348474546
181,-0.2794621651616506,-0.5349767676222983,-147.35999999999996,-0.3328188756816996,-1.2881787990450346,0.4476154689166013,0.8020737418770172,-0.4324717029926405,0.5870327847829602,-0.7447193396914319,-0.12404662482967482,0.3024311798165188,0.4909754348474546
182,-0.2794621651616506,-0.538584102141093,-36.60000000000002,0.17116517502778217,-1.3259274730246733,0.9714668238503612,1.698703480959854,-0.4324717029926405,0.5870327847829602,-0.7447193396914319,-0.12404662482967482,0.3024311798165198,0.20525312260257272
183,-0.2794621651616506,-0.593804069005719,-26.442000000000007,0.17116517502778217,-1.3636761470043117,-0.4326708285494074,1.1648867291155582,-0.4324717029926405,0.5870327847829602,1.7015915294550445,-0.12404662482967482,0.3024311798165198,0.20525312260257272
184,-1.1350012184335831,-0.5850354712523412,-21.5,-0.5848109010364404,0.8634956177943649,-0.6427877543005048,-0.9376045567121875,1.243129957974661,0.5870327847829602,-0.7447193396914319,-0.12404662482967482,-0.5648302995521257,-0.3733345596933138
185,-1.1350012184335831,-0.5662287714822405,-1086.0,-0.3328188756816996,0.8634956177943649,-0.6426512681930338,-0.9376045567121875,1.243129957974661,0.5870327847829602,-0.7447193396914319,-0.12404662482967482,-0.5648302995521257,-0.272311313578159
186,-1.1350012184335831,-0.5682752401034799,-575.0,-0.3328188756816996,0.8634956177943649,-0.6422260992395449,-0.9376045567121875,1.243129957974661,0.5870327847829602,-0.7447193396914319,-0.12404662482967482,-0.5648302995521257,-0.272311313578159
187,-1.1350012184335831,-0.5230448149832082,-273.0,-0.5848109010364404,-0.6464513413911787,-0.6426380123480635,-1.0308819801916882,-0.4324717029926405,-2.2202516968129236,1.7015915294550445,-0.12322864522302475,0.3024311798165188,-0.5118099300216461
188,-1.1350012184335831,0.44233339970038,-1290.0,1.1791332764467457,1.6184690973871367,-0.6123611714788881,-0.8857334147817753,-0.4324717029926405,0.5530050940969494,-0.7447193396914319,-0.12404662482967482,0.3024311798165168,-0.4434137484398626
189,-1.1350012184335831,-0.07018558923913924,-207.23848058252432,1.1791332764467457,1.6184690973871367,-0.6388728614193034,-0.9859302205897734,-0.4324717029926405,0.5870327847829602,-0.7447193396914319,-0.12172823691596946,0.3024311798165188,-0.36256558421910945
190,-1.1350012184335831,-0.018017982351954818,-207.23848058252432,1.1791332764467457,1.6184690973871367,-0.6388728614193034,-0.9983678944020986,-0.4324717029926405,0.5870327847829602,-0.7447193396914319,-0.12404662482967482,0.3024311798165188,-0.3201072579767268
191,-1.1350012184335831,0.6046912017732078,-207.23848058252432,1.1791332764467457,1.2409823575907508,-0.6172707436900763,-0.9376045567121875,-0.4324717029926405,0.5870327847829602,-0.7447193396914319,-0.12404662482967482,0.3024311798165168,-0.1500200156492876
192,0.9573497270684258,-0.2336255916676053,-207.23848058252432,0.6751492257372639,0.10852213820159314,0.10787307190239169,1.8298063671575984,-0.4324717029926405,-0.4848394718263773,-0.7200920490624405,0.7509578458268632,0.3024311798165188,-0.196543878991793
193,0.9573497270684258,-0.45816829109903956,-207.23848058252432,0.6751492257372639,0.10852213820159314,-0.4135234969257742,1.1315409950174362,-0.4324717029926405,-0.4848394718263773,-0.7200920490624405,0.38076364670294327,0.3024311798165168,-1.0097810102187887
194,0.9573497270684258,-0.45816829109903956,-207.23848058252432,0.6751492257372639,0.10852213820159314,-0.4135234969257742,1.0887900538659978,0.40532912749101024,-0.4848394718263773,-0.7200920490624405,-0.2829683769788324,-1.8583297383136197,-0.9744228740784846
195,-1.1350012184335831,-0.6015200187977855,-147.76,-0.5848109010364404,-0.4577079714929857,-0.6432865668371615,-1.0284619919162423,3.756532449425613,-2.2202516968129236,1.7015915294550445,-0.12404662482967482,-3.7610547313845,3.019122502311365
196,-1.1350012184335831,-0.4193339475678615,-14.700000000000044,-0.0808268503269587,-0.4577079714929857,-0.6360253095368144,-1.0212447780310565,3.756532449425613,-2.2202516968129236,0.8806818418219988,-0.15910289368610658,-3.7610547313845,3.019122502311365
197,-1.1350012184335831,-0.5946107245015757,177.29700000000005,-0.5848109010364404,-0.4577079714929857,-0.6432767476927391,-1.0319479036577306,3.756532449425613,-0.5528948531983987,1.7015915294550445,-0.12404662482967482,-3.915979836566537,3.5769703659931715
198,-1.1350012184335831,-0.603516123479397,-54.0,-0.0808268503269587,-0.4577079714929857,-0.6429969020767013,-1.0282490922293082,3.756532449425613,-0.5528948531983987,0.8806818418219988,-0.14741747073396264,-3.915979836566537,3.5769703659931715
199,-1.1350012184335831,0.2380750197553989,-7.740000000000009,-0.0808268503269587,-0.4577079714929857,-0.64270232774403,-1.0330400477010127,3.756532449425613,-0.5528948531983987,0.059772154188952965,-0.13300233298019795,-3.915979836566537,3.5769703659931715
200,-1.1350012184335831,-0.3648770706975959,65.56000000000006,-0.5848109010364404,0.8634956177943649,1.286170402587512,1.1742919361688748,-0.4324717029926405,0.5870327847829602,1.7015915294550445,-0.12404662482967482,0.3024311798165188,-0.6982471620636764
201,0.9573497270684258,-0.43147401565995896,0.0074999999999363,-0.5848109010364404,0.8634956177943649,0.4368144100519878,1.128690932274007,-0.4324717029926405,0.5870327847829602,1.7015915294550445,-0.12404662482967482,0.3024311798165168,-0.5566730433837798
202,0.9573497270684258,0.062453326144233906,0.0074999999999363,1.1791332764467457,-0.8351947112893716,2.12570725070066,1.493498963432949,-0.4324717029926405,0.5870327847829602,-0.7200920490624405,-0.12404662482967482,0.3024311798165168,-0.5566730433837798
203,0.9573497270684258,0.5896791404296083,1.1073000000000093,1.1791332764467457,-0.8351947112893716,1.7133031849608684,1.3338954498009126,-0.4324717029926405,0.5870327847829602,-0.7200920490624405,-0.12404662482967482,0.3024311798165168,-0.5566730433837798
204,0.9573497270684258,0.5869042677228432,-4.870000000000118,0.17116517502778217,0.48600887799797904,1.5905638796811683,1.2626438812151817,-0.4324717029926405,0.5870327847829602,-0.7200920490624405,-0.12404662482967482,0.3024311798165168,-0.5566730433837798
205,0.9573497270684258,0.5730299041890176,-1.4600000000000364,0.6751492257372639,0.48600887799797904,1.58565430746998,1.2711940694454689,-0.4324717029926405,0.5870327847829602,-0.7200920490624405,-0.12404662482967482,0.3024311798165168,-0.5566730433837798
206,0.9573497270684258,0.5730299041890176,-12.299999999999956,1.1791332764467457,0.48600887799797904,1.58565430746998,1.3509958262614874,-0.4324717029926405,0.5870327847829602,-0.7200920490624405,-0.12404662482967482,0.3024311798165168,-0.5566730433837798
207,-1.1350012184335831,-0.39006459025690293,-25.0,-0.0808268503269587,-1.3636761470043117,-0.6419020674736063,-0.5300455844018069,-0.4324717029926405,0.5530050940969494,-0.5559101115358314,-0.1242378918325555,0.3024311798165168,-0.22849400201013986
208,-1.1350012184335831,-0.36445251517346083,-207.23848058252432,-0.0808268503269587,-1.3636761470043117,-0.6417400515906372,-0.5300455844018069,-0.4324717029926405,0.5530050940969494,-0.5559101115358314,-0.12369886664261905,0.3024311798165168,-0.22849400201013986
209,-1.1350012184335831,-0.54996108023883,-207.23848058252432,-0.0808268503269587,-1.3901002187900589,-0.6427465138939308,-0.5300455844018069,-0.4324717029926405,0.5530050940969494,-0.5559101115358314,-0.12425415794130489,0.3024311798165188,-0.3552021821854656
210,-1.1350012184335831,-0.5507935420508595,180.0,-0.0808268503269587,-1.3901002187900589,-0.6427551056453004,-0.5300455844018069,-0.4324717029926405,0.5530050940969494,-0.5559101115358314,-0.12385619917724668,0.3024311798165188,-0.3552021821854656
211,-1.1350012184335831,-0.5825741591614406,390.0,-0.0808268503269587,-1.3938750861880225,-0.6432344026324176,-0.5300455844018069,-0.4324717029926405,0.5530050940969494,-0.5559101115358314,-0.12408168109853127,0.3024311798165168,-0.5927988529779603
212,-1.1350012184335831,-0.583620286171891,190.0,-0.0808268503269587,-1.3938750861880225,-0.6432369801578284,-0.5300455844018069,-0.4324717029926405,0.5530050940969494,-0.5559101115358314,-0.12398845946838823,0.3024311798165168,-0.5927988529779603
213,-1.1350012184335831,-0.6024616718508261,110.0,-0.0808268503269587,-1.3938750861880225,-0.6432910946901332,-0.5300455844018069,-0.4324717029926405,0.5530050940969494,-0.5559101115358314,-0.12408367790360537,0.3024311798165168,-0.6242632677857949
214,-1.1350012184335831,-0.6024616718508261,-490.0,-0.0808268503269587,-1.3938750861880225,-0.6432911987730642,-0.5300455844018069,-0.4324717029926405,0.5530050940969494,-0.5559101115358314,-0.12408367790360537,0.3024311798165168,-0.6242632677857949
215,-1.1350012184335831,6.20269165167411,-207.23848058252432,-0.0808268503269587,-1.3938750861880225,-0.6432301067567329,0.38888304558562037,-0.4324717029926405,0.5530050940969494,-0.5559101115358314,-0.12408551391725954,0.3024311798165168,-0.8185851629415885
216,-1.1350012184335831,4.108495219878468,5.0,-0.0808268503269587,-1.3938750861880225,-0.6432870577943826,0.2064106285003071,-0.4324717029926405,0.5530050940969494,-0.5559101115358314,-0.12404662482967482,0.3024311798165168,-0.8185851629415885
217,0.9759484021395547,1.4532195267749162,5.0,-0.5835509409096667,-0.4577079714929857,0.3288038214058518,-0.336241317848619,-0.4324717029926405,0.5870327847829602,-0.7200920490624405,-0.12404662482967482,0.3024311798165198,-0.12487198141009516
218,0.9759484021395547,1.075836838654859,-20.0,-0.5835509409096667,-0.4577079714929857,-0.19652040519126449,-0.7409502274155703,-0.4324717029926405,0.5870327847829602,-0.7200920490624405,-0.12404662482967482,0.3024311798165188,-0.29910200868052045
219,0.9759484021395547,2.067021369511363,6.0,-0.5835509409096667,-0.4577079714929857,-0.25543527172552044,-0.8008015450275842,-0.4324717029926405,0.5870327847829602,-0.7200920490624405,-0.12404662482967482,0.3024311798165188,0.05096307399033641
220,-1.1350012184335831,-0.6034412019163143,0.0,-0.5848109010364404,1.6184690973871367,-0.5549191766079885,0.4731765012852834,-0.4324717029926405,0.5530050940969494,-0.7447193396914319,-0.12404662482967482,0.3024311798165198,5.991129945561435
221,-1.1350012184335831,-0.526968484990574,-34.375,-0.5848109010364404,1.6184690973871367,-0.5770122515583346,0.41218515857589777,-0.4324717029926405,0.5530050940969494,-0.7200920490624405,-0.12404662482967482,0.3024311798165198,5.991129945561435
222,-1.1350012184335831,-0.526968484990574,40.0,-0.5848109010364404,1.6184690973871367,-0.5770122515583346,0.8436846579310838,-0.4324717029926405,0.5530050940969494,-0.7200920490624405,-0.12404662482967482,0.3024311798165198,5.991129945561435
223,-1.1350012184335831,-0.6029500494472169,-100.0,-0.5848109010364404,1.6184690973871367,-0.6285627597758086,-0.8697730634185715,-0.4324717029926405,0.5530050940969494,-0.7447193396914319,-0.12404662482967482,0.3024311798165198,2.4553163315310194
224,-1.1350012184335831,-0.6033274321353369,0.0,-0.5848109010364404,1.6184690973871367,-0.6388728614193034,-0.8754731889054301,-0.4324717029926405,0.5530050940969494,-0.5969555959174836,-0.12404662482967482,0.3024311798165198,2.4553163315310194
225,-1.1350012184335831,0.08541539779271534,-284.89200000000005,1.4311253018014864,1.6184690973871367,-0.6288082383863679,-0.8737631512593724,-0.4324717029926405,0.5530050940969494,-0.7200920490624405,-0.10348028043390148,0.3024311798165198,2.4553163315310194
226,-1.1350012184335831,0.04714435342101067,454.5400000000001,1.4311253018014864,1.6184690973871367,-0.6265498351692215,-0.8757581951797729,-0.4324717029926405,0.5530050940969494,-0.7200920490624405,-0.12404662482967482,0.3024311798165198,2.4553163315310194
227,-1.1350012184335831,0.14899050637741124,0.0,1.4311253018014864,1.6184690973871367,-0.6334723319869967,-0.9062538665344658,-0.4324717029926405,0.5530050940969494,-0.7200920490624405,-0.10460208103730732,0.3024311798165198,1.2767117935208805
228,-1.1350012184335831,0.03609203542996519,-207.23848058252432,1.4311253018014864,1.6184690973871367,-0.6354361608714718,-0.9082489104548662,-0.4324717029926405,0.5530050940969494,-0.7200920490624405,-0.12404662482967482,0.3024311798165198,1.2767117935208805
229,-1.1350012184335831,-0.12509199548790081,-631.7,1.4311253018014864,1.6184690973871367,-0.6362707881473737,-0.9284843559332139,-0.4324717029926405,0.5530050940969494,-0.7200920490624405,-0.12404662482967482,0.3024311798165188,0.9399676398036979
230,-1.1350012184335831,-0.6032025628635325,-456.2,-0.5848109010364404,1.6184690973871367,-0.637399989755947,-0.9535649080753912,-0.4324717029926405,0.5530050940969494,-0.7447193396914319,-0.12404662482967482,0.3024311798165188,0.4909754348474546
231,-1.1350012184335831,-0.6032941336628557,47.60000000000002,-0.5848109010364404,1.6184690973871367,-0.639854775861541,-0.965250165323451,-0.4324717029926405,0.5530050940969494,-0.5969555959174836,-0.12404662482967482,0.3024311798165188,0.4909754348474546
232,-1.1350012184335831,-0.6034855998796225,0.0,-0.5848109010364404,1.6184690973871367,-0.6428005191882538,-0.9954893310312352,-0.4324717029926405,0.5530050940969494,0.3881360292421713,-0.12404662482967482,0.3024311798165188,0.4909754348474546
233,-1.1350012184335831,-0.1896383095199645,0.0,1.4311253018014864,1.6184690973871367,-0.6362609690029514,-0.9492898139602471,-0.4324717029926405,0.5530050940969494,-0.7200920490624405,-0.12404662482967482,0.3024311798165188,0.4909754348474546
234,0.9573497270684258,-0.603516123479397,-207.23848058252432,-0.5848109010364404,1.9959558371835227,-0.6432914764093727,-0.905968860260123,-0.4324717029926405,0.5530050940969494,1.7015915294550445,-0.12404662482967482,0.3024311798165188,0.4909754348474546
235,0.9573497270684258,-0.5944866876915832,0.0,-0.5848109010364404,1.9959558371835227,-0.6112290241269883,-0.809066726983529,-0.4324717029926405,0.5530050940969494,1.7015915294550445,-0.12404662482967482,0.3024311798165168,0.3338281631127697
236,0.9573497270684258,-0.5944866876915832,0.0,-0.5848109010364404,1.9959558371835227,-0.6112290241269883,-0.6893640917595011,-0.4324717029926405,0.5530050940969494,1.7015915294550445,-0.12404662482967482,0.3024311798165198,0.20525312260257272
237,0.9573497270684258,-0.5858679330643708,0.0,-0.5848109010364404,1.9959558371835227,-0.6071177483573393,-0.22765392732396525,-0.4324717029926405,0.5530050940969494,1.7015915294550445,-0.12404662482967482,0.3024311798165188,-0.196543878991793
238,0.9573497270684258,-0.5846192403463264,0.0,-0.5848109010364404,1.9959558371835227,-0.5192756823547637,0.11150353914411365,-0.4324717029926405,0.5530050940969494,1.7015915294550445,-0.12404662482967482,0.3024311798165188,-0.4655731757114985
239,0.9573497270684258,-0.4894411065042825,0.0,-0.45881488835907003,1.9959558371835227,-0.5151516416973657,0.04039447369555414,-0.4324717029926405,0.5530050940969494,-0.7200920490624405,0.10760519977362662,0.3024311798165188,0.4909754348474546
240,0.9573497270684258,-0.4611790279858796,0.0,-0.45881488835907003,1.9959558371835227,-0.43659848631835774,0.016311443513577148,-0.4324717029926405,0.5530050940969494,-0.7200920490624405,-0.12404662482967482,0.3024311798165168,0.3338281631127697
241,0.9573497270684258,-0.4267511823130447,-280.0,-0.45881488835907003,1.9959558371835227,-0.3334974698834098,-0.007629083531228313,-0.4324717029926405,0.5530050940969494,-0.7200920490624405,-0.12404662482967482,0.3024311798165198,0.20525312260257272
242,0.9573497270684258,-0.45398489300632044,-300.0,-0.45881488835907003,1.9959558371835227,0.00035344047737439067,0.39907486995612323,-0.4324717029926405,0.5530050940969494,-0.7200920490624405,-0.12404662482967482,0.3024311798165188,-0.196543878991793
243,0.9573497270684258,-0.44833414222626394,-300.0,-0.45881488835907003,1.9959558371835227,0.36366178410528666,0.49540699068403143,-0.4324717029926405,0.5530050940969494,-0.7200920490624405,-0.12404662482967482,0.3024311798165188,-0.4655731757114985
244,-1.1350012184335831,-0.556010302739578,-280.0,-0.5848109010364404,-0.6464513413911787,-0.43021604244381334,0.0761627611255911,0.40532912749101024,0.5870327847829602,1.7015915294550445,-0.12404662482967482,-1.8583297383136173,4.812525407551298
245,0.9759484021395547,-0.5450978383329534,45.0,-0.3328188756816996,-0.6464513413911787,-0.02959495001087239,0.9690874186419702,0.40532912749101024,0.5870327847829602,-0.5559101115358314,-0.12404662482967482,-1.8583297383136177,2.4164612368713443
246,0.9759484021395547,-0.6031720392637582,-48.0,0.17116517502778217,-0.6464513413911787,-0.6393932760736893,0.9548371049248241,0.40532912749101024,0.5870327847829602,0.8806818418219988,0.2611049156729894,-1.8583297383136177,1.8935515517317925
247,0.9573497270684258,-0.5563432874643898,24.0,-0.5344124959654922,-1.3259274730246733,-0.3781745770052205,-0.6554483451126933,-0.4324717029926405,0.5530050940969494,-0.7200920490624405,-0.12404662482967482,0.3024311798165188,0.10204907670810007
248,0.9573497270684258,-0.539694051223799,-21.0,-0.5344124959654922,-1.3259274730246733,-0.3045309938374004,-0.6696986588298395,-0.4324717029926405,0.5530050940969494,-0.7200920490624405,-0.12404662482967482,0.3024311798165168,0.020145087626802873
249,0.9573497270684258,-0.5341443058102687,10.0,-0.5344124959654922,-1.3259274730246733,-0.1572438275017604,-0.5357457098886654,-0.4324717029926405,0.5530050940969494,-0.7200920490624405,-0.12404662482967482,0.3024311798165188,-0.09696081128092272
250,0.9573497270684258,-0.539694051223799,-14.0,-0.5344124959654922,-1.3259274730246733,-0.23088741066958046,-0.421743200151496,-0.4324717029926405,0.5530050940969494,-0.7200920490624405,0.23492956826018693,0.3024311798165168,-0.20799546534198404
251,0.9573497270684258,-0.4814217243817313,-1.5,-0.5344124959654922,-1.3259274730246733,0.15205922180308365,-0.1395869885520019,-0.4324717029926405,0.5530050940969494,-0.7200920490624405,0.3788939790306003,0.3024311798165188,-0.3147552978690956
252,0.9573497270684258,-0.48697146979526157,-12.0,-0.5344124959654922,-1.3259274730246733,-0.29471184941502454,-0.578496651040104,-0.4324717029926405,0.5530050940969494,-0.7200920490624405,0.8818345828908751,0.3024311798165168,-0.40988303612093957
253,0.9573497270684258,-0.4508981246073149,-3.0,-0.5344124959654922,-1.3259274730246733,-0.33889799931571657,-0.6126974039612548,-0.4324717029926405,0.5530050940969494,-0.7200920490624405,1.1703243047334049,0.3024311798165198,-0.23713088678552327
254,-1.1350012184335831,-0.4949353544636774,3.0,-0.0808268503269587,-0.26896460159479274,-0.641941344051296,-1.027247580181267,-0.4324717029926405,-0.5358810078553934,-0.26859172086426536,-0.12490293262360794,0.3024311798165168,-0.49119501349432754
255,-1.1350012184335831,-0.43885517705995425,-168.0,-0.0808268503269587,-0.26896460159479274,-0.6423897352813437,-1.026669017444351,-0.4324717029926405,-2.2202516968129236,-0.26859172086426536,-0.12595368585546465,0.3024311798165168,-0.6242632677857949
256,-1.1350012184335831,-0.4949353544636774,-520.0,-0.0808268503269587,-0.26896460159479274,-0.641941344051296,-1.0268172207070094,-0.4324717029926405,-0.5358810078553934,-0.26859172086426536,-0.12319031703574171,0.3024311798165168,-0.49119501349432754
257,-1.1350012184335831,-0.43885517705995425,-632.0,-0.0808268503269587,-0.26896460159479274,-0.6423897352813437,-1.0257284967390192,-0.4324717029926405,-2.2202516968129236,-0.26859172086426536,-0.12213956380388497,0.3024311798165168,-0.6242632677857949
258,-1.1350012184335831,-0.5480186693440944,0.0,-0.5848109010364404,-0.6464513413911787,-0.6310175458814026,-0.9683852343412231,-0.4324717029926405,-2.2202516968129236,1.7015915294550445,-0.12404662482967482,0.3024311798165188,-0.7178497323424313
259,-1.1350012184335831,-0.1639998731458081,0.0,-0.3328188756816996,-1.0239380811875645,1.153611952885436,0.0761627611255911,0.40532912749101024,0.5870327847829602,-0.7200920490624405,-0.0013964255239720476,-1.8583297383136177,3.465548792682567
260,0.9759484021395547,-0.12397399927434513,0.0,0.17116517502778217,-1.0239380811875645,1.6052925963147322,0.9006859127996685,0.40532912749101024,0.5870327847829602,-0.5559101115358314,-0.25492336189368686,-1.8583297383136181,1.192525755091585
261,0.9759484021395547,-0.5986739706060918,0.0,0.17116517502778217,-1.0239380811875645,-0.5721026793471466,0.3320983954855362,0.40532912749101024,0.5870327847829602,1.7015915294550445,-0.10721961577858756,-1.8583297383136181,1.192525755091585
262,0.9759484021395547,0.1554115618208657,0.0,-0.5848109010364404,-1.0239380811875645,2.220461994376589,1.18455216204522,0.40532912749101024,0.5870327847829602,-0.7200920490624405,-0.12404662482967482,-1.8583297383136181,1.3673736810601222
263,0.9759484021395547,-0.005506081317150815,-827.586,-0.0808268503269587,-1.0239380811875645,1.7533161984820507,1.0830899283791395,0.40532912749101024,0.5870327847829602,-0.7200920490624405,0.19753621481332634,-1.8583297383136181,1.3673736810601222
264,0.9759484021395547,-0.06829867579853896,0.0,-0.0808268503269587,-1.0239380811875645,1.6634710270173103,1.0887900538659978,0.40532912749101024,0.5870327847829602,-0.5559101115358314,0.29849826911984995,-1.8583297383136181,1.3673736810601222
265,0.9759484021395547,-0.175928079706744,-1355.93,-0.0808268503269587,-1.0239380811875645,1.4893530485475275,1.0708346585823938,0.40532912749101024,0.5870327847829602,-0.35068268962756993,0.3994603234263735,-1.8583297383136181,1.3673736810601222
266,0.9759484021395547,-0.4151438897806462,0.0,-0.0808268503269587,-1.0239380811875645,0.8981178150152125,1.1138706060081753,0.40532912749101024,0.5870327847829602,0.059772154188952965,0.5976450966947348,-1.8583297383136181,1.3673736810601222
267,0.9759484021395547,-0.45852680465275364,-207.23848058252432,-0.0808268503269587,-1.0239380811875645,0.03030575862339015,1.095345198175885,0.40532912749101024,0.5870327847829602,0.8806818418219988,0.10068742938595739,-1.8583297383136181,1.3673736810601222
268,0.9759484021395547,-0.5478138837383351,0.0,-0.0808268503269587,-1.0239380811875645,-0.5682241173003081,0.9568321488452244,0.40532912749101024,0.5870327847829602,1.7015915294550445,-0.04365091491892451,-1.8583297383136181,1.3673736810601222
269,0.9759484021395547,-0.3416630406073402,0.0,-0.0808268503269587,-1.0239380811875645,-0.318536889570368,0.24802154455437395,-0.4324717029926405,0.5870327847829602,-0.7200920490624405,0.5929709275138771,0.3024311798165168,-0.3033953893058989
270,0.9759484021395547,-0.33774991511626,0.0,-0.0808268503269587,-1.0239380811875645,-0.16220629122171973,0.19957047791607688,-0.4324717029926405,0.5870327847829602,-0.5559101115358314,0.9108144318121923,0.3024311798165168,-0.3033953893058989
271,0.9759484021395547,-0.35932732528406564,0.0,-0.0808268503269587,-1.0239380811875645,-0.6425959036345482,0.10266834463948296,-0.4324717029926405,0.5870327847829602,-0.35068268962756993,0.6714969697522845,0.3024311798165168,-0.3033953893058989
272,0.9759484021395547,-0.49017922264428204,-207.23848058252432,-0.0808268503269587,-1.0239380811875645,-0.558258535754929,-0.3037506025735258,-0.4324717029926405,0.5870327847829602,0.059772154188952965,1.109934038916725,0.3024311798165168,-0.3033953893058989
273,0.9759484021395547,-0.4683554037801156,0.0,-0.0808268503269587,-1.0239380811875645,0.009426329923649866,0.5508122104162956,-0.4324717029926405,0.5870327847829602,0.8806818418219988,0.12274950791960515,0.3024311798165168,-0.3033953893058989
274,0.9759484021395547,-0.3440655253968574,0.0,-0.0808268503269587,-1.0239380811875645,0.32084049527930475,0.8482447583205704,-0.4324717029926405,0.5870327847829602,1.7015915294550445,-0.12404662482967482,0.3024311798165168,-0.3033953893058989
275,-1.1350012184335831,-0.590245017272022,0.0,0.9271412510920047,0.8634956177943649,-0.6165244887139757,0.18445471414626097,-0.4324717029926405,-2.3393486142139612,-0.6790465646807883,-0.13134367600135555,0.3024311798165188,-0.6982471620636764
276,-1.1350012184335831,-0.5936653253703807,0.0,0.9271412510920047,0.8634956177943649,-0.615488568977415,0.02300720991922526,-0.4324717029926405,-2.3393486142139612,-0.6790465646807883,-0.13134367600135555,0.3024311798165188,-0.6982471620636764
277,0.9573497270684258,-0.09293954543461329,0.0,-0.3328188756816996,-1.0994354291468418,0.45645269889673973,-0.16295750304812165,-0.4324717029926405,0.5530050940969494,-0.728301145938771,-0.12404662482967482,0.3024311798165168,-0.5924622771121761
278,0.9573497270684258,-0.10598144715640939,0.0,-0.3328188756816996,-1.0994354291468418,-0.16460818581854245,-0.25216446691745664,-0.4324717029926405,0.5530050940969494,-0.728301145938771,-0.12404662482967482,0.3024311798165168,-0.5924622771121761
279,0.9573497270684258,-0.15953649039697637,-22.200000000000045,-0.3328188756816996,-1.0994354291468418,-0.1572438275017604,-0.1792028606856683,-0.4324717029926405,0.5530050940969494,-0.728301145938771,-0.12404662482967482,0.3024311798165168,-0.5924622771121761
280,0.9573497270684258,-0.1817354720510974,-24.049999999999955,-0.3328188756816996,-1.0994354291468418,-0.17054876819407994,-0.0951260097545058,-0.4324717029926405,0.5530050940969494,-0.728301145938771,-0.12404662482967482,0.3024311798165168,-0.6099964689224953
281,0.9573497270684258,-0.20393445370521843,-40.779,-0.3328188756816996,-1.0994354291468418,-0.1403598086674849,-0.028434541558261833,-0.4324717029926405,0.5530050940969494,-0.728301145938771,-0.12404662482967482,0.3024311798165168,-0.6099964689224953
282,0.9573497270684258,-0.20393445370521843,-57.39999999999998,-0.3328188756816996,-1.0994354291468418,-0.18827232387646858,0.03996696428403974,-0.4324717029926405,0.5530050940969494,-0.728301145938771,-0.12404662482967482,0.3024311798165168,-0.6099964689224953
283,0.9573497270684258,-0.22613343535933947,-40.75999999999999,-0.3328188756816996,-1.0994354291468418,-0.13540605030639624,0.6664107552897854,-0.4324717029926405,0.5530050940969494,-0.728301145938771,-0.12404662482967482,0.3024311798165168,-0.6099964689224953
284,0.9573497270684258,-0.27302878410367015,0.169999999999959,-0.3328188756816996,-1.0994354291468418,0.22963046273985416,2.1665697809211966,-0.4324717029926405,0.5530050940969494,-0.728301145938771,-0.12404662482967482,0.3024311798165168,-0.6099964689224953
285,0.9573497270684258,-0.2014453928872501,-5.2999999999999545,-0.3328188756816996,0.10852213820159314,-0.23993084268258888,0.022011569000435695,-0.4324717029926405,0.5530050940969494,-0.7200920490624405,0.15602959248731108,0.3024311798165168,-0.6099964689224953
286,0.9573497270684258,-0.2028611329422417,1.0220000000000482,-0.3328188756816996,0.10852213820159314,-0.2667862026777871,-0.08586330583836091,-0.4324717029926405,0.5530050940969494,-0.35068268962756993,0.0030907768896512285,0.3024311798165168,-0.6099964689224953
287,0.9573497270684258,-0.2835733003893776,-22.0,-0.3328188756816996,0.10852213820159314,-0.20633954961364045,-0.18989059597352792,-0.4324717029926405,0.5530050940969494,0.059772154188952965,0.23119023291550087,0.3024311798165168,-0.6099964689224953
288,0.9573497270684258,-0.3486684842428394,-45.0,-0.3328188756816996,0.10852213820159314,-0.25690814338887685,-0.26042964887340136,-0.4324717029926405,0.5530050940969494,0.47022699800547585,0.15640352602177968,0.3024311798165168,-0.6099964689224953
289,0.9573497270684258,-0.41944910478519226,-43.0,-0.3328188756816996,0.10852213820159314,-0.3621693715967476,-0.349693613997605,-0.4324717029926405,0.5530050940969494,0.8806818418219988,0.015991483828818126,0.3024311798165168,-0.6099964689224953
290,0.9573497270684258,-0.4803472936696719,-62.0,-0.3328188756816996,0.10852213820159314,-0.41843306913696215,-0.4245932628949253,-0.4324717029926405,0.5530050940969494,1.2911366856385216,-0.015605899833779089,0.3024311798165168,-0.6099964689224953
291,0.9573497270684258,-0.41574881203072095,-250.0,-0.5797710605293456,-0.2765143363907204,-0.07927982078809499,-0.13422887059435498,-0.4324717029926405,0.5530050940969494,-0.728301145938771,0.18201797313287915,0.3024311798165168,-0.6099964689224953
292,0.9573497270684258,-0.40323025130142076,-310.0,-0.5722112997687034,-0.2765143363907204,-0.07927982078809499,-0.13422887059435498,-0.4324717029926405,0.5530050940969494,-0.728301145938771,0.1820179731328792,0.3024311798165168,-0.6099964689224953
293,0.9573497270684258,-0.31765317702478424,-570.0,-0.45881488835907003,-0.9771297254528127,-0.11466114388524239,0.5733049055874392,-0.4324717029926405,0.5530050940969494,-0.728301145938771,-0.12404662482967482,0.3024311798165168,-0.6099964689224953
294,0.9573497270684258,-0.30516624984434115,173.89999999999998,0.6751492257372639,0.3350141820794247,-0.07400694023327907,0.08066016013472248,-0.4324717029926405,0.5530050940969494,-0.728301145938771,0.22068270059693312,0.3024311798165168,-0.6099964689224953
295,-1.1350012184335831,-0.531258438195233,902.0,1.1791332764467457,1.6184690973871367,-0.5824127809906414,1.8483317749898884,-0.4324717029926405,-2.3393486142139612,-0.7447193396914319,-0.20631200241276815,0.3024311798165168,-0.7083063757593532
296,-1.1350012184335831,-0.528894246649069,-173.89999999999998,1.1791332764467457,1.6184690973871367,-0.6157978720267198,1.2426934420111766,-0.4324717029926405,-2.3393486142139612,-0.6790465646807883,-0.15396130758716328,0.3024311798165168,-0.7083063757593532
297,-1.1350012184335831,-0.5384731072328223,-902.0,1.1791332764467457,1.6184690973871367,-0.6403457330826599,-0.18233792970344043,-0.4324717029926405,-2.3393486142139612,-0.35068268962756993,-0.1464826368977912,0.3024311798165168,-0.7083063757593532
298,0.17620537408100911,-0.44321172720957547,-10.860000000000014,-0.5822909807828931,-0.4577079714929857,-0.6192345725745515,-0.9434471853362173,-0.4324717029926405,0.5530050940969494,-0.7200920490624405,0.002529876587948319,0.3024311798165168,0.11101530858077761
299,0.17620537408100911,0.3586071655191558,-254.052,-0.5822909807828931,-0.4577079714929857,-0.6143250003633635,-1.000932950871185,-0.4324717029926405,0.5530050940969494,-0.7200920490624405,-0.09487980914112357,0.3024311798165188,-0.3955939190068224
300,0.17620537408100911,-0.5397661979141748,21.840000000000032,-0.5822909807828931,-0.4577079714929857,-0.6285627597758086,-0.97294533473071,-0.4324717029926405,0.5530050940969494,-0.7200920490624405,-0.10254544659773,0.3024311798165188,-0.5201464720349888
301,0.17620537408100911,0.011159804159680533,0.8500000000000227,-0.5822909807828931,-0.4577079714929857,-0.6025420270565122,-0.9883356735452278,-0.4324717029926405,0.5530050940969494,-0.7200920490624405,-0.09282317470154622,0.3024311798165188,-0.5410901712819423
302,-1.1350012184335831,-0.3484498242735463,0.0,-0.5848109010364404,1.6184690973871367,0.12518225969015606,0.8385545449929109,-0.4324717029926405,0.3318251046378798,1.7015915294550445,-0.12404662482967482,0.3024311798165168,0.07878586964172266
303,-1.1350012184335831,-0.3755372991751755,-86.0,-0.5848109010364404,1.6184690973871367,0.12518225969015606,0.8642051096837743,-0.4324717029926405,0.3318251046378798,1.7015915294550445,-0.12404662482967482,0.3024311798165168,0.3338281631127697
304,-1.1350012184335831,-0.4142975536050828,-10.799999999999956,-0.5848109010364404,1.6184690973871367,0.12518225969015606,0.422445384452243,-0.4324717029926405,0.3318251046378798,1.7015915294550445,-0.12404662482967482,0.3024311798165168,0.5266907238780659
305,-1.1350012184335831,-0.4313399893082222,-10.700000000000044,-0.5848109010364404,1.6184690973871367,0.12518225969015606,0.5136473922419785,-0.4324717029926405,0.3318251046378798,1.7015915294550445,-0.12404662482967482,0.3024311798165168,0.193669785619672
306,-1.1350012184335831,-0.3949389316536066,-32.33000000000004,-0.5848109010364404,1.6184690973871367,0.12518225969015606,0.641615209421951,-0.4324717029926405,0.3318251046378798,1.7015915294550445,-0.12404662482967482,0.3024311798165188,-0.05562377118623253
307,-1.1350012184335831,-0.38947354237036197,-6.091599999999971,-0.5848109010364404,1.6184690973871367,-0.3418457064713138,0.2713920590504937,-0.4324717029926405,0.3318251046378798,1.7015915294550445,-0.12404662482967482,0.3024311798165188,0.12832788469048853
308,-1.1350012184335831,-0.3187864350382271,1.5744000000000824,-0.3328188756816996,1.6184690973871367,0.18004378340685526,1.0523092507501035,-0.4324717029926405,0.3318251046378798,-0.7200920490624405,-0.12404662482967482,0.3024311798165168,0.07878586964172266
309,-1.1350012184335831,-0.35178244639437123,-70.34199999999998,-0.3328188756816996,1.6184690973871367,0.30671074645550583,1.0893600664146839,-0.4324717029926405,0.3318251046378798,-0.7200920490624405,-0.12404662482967482,0.3024311798165168,0.3338281631127697
310,-1.1350012184335831,-0.40095041588554253,-85.63,-0.3328188756816996,1.6184690973871367,0.02185736676237787,0.6133995882620017,-0.4324717029926405,0.3318251046378798,-0.7200920490624405,-0.12404662482967482,0.3024311798165168,0.5266907238780659
311,-1.1350012184335831,-0.39716576700078554,-77.74000000000001,-0.3328188756816996,1.6184690973871367,0.02185736676237787,0.6704008431305865,-0.4324717029926405,0.3318251046378798,-0.7200920490624405,-0.12404662482967482,0.3024311798165168,0.193669785619672
312,-1.1350012184335831,-0.3611313505020422,-112.875,-0.3328188756816996,1.6184690973871367,0.11671030188253008,0.8271542940191943,-0.4324717029926405,0.3318251046378798,-0.7200920490624405,-0.12404662482967482,0.3024311798165188,-0.05562377118623253
313,-1.1350012184335831,-0.4086813277912439,-22.575000000000045,-0.3328188756816996,1.6184690973871367,-0.05733403300408458,0.4338456354259599,-0.4324717029926405,0.3318251046378798,-0.7200920490624405,-0.12404662482967482,0.3024311798165188,0.12832788469048853
314,0.9759484021395547,-0.313541925622441,0.0,-0.5848109010364404,-0.26896460159479274,-0.0541428110668124,0.13715410383497673,0.40532912749101024,-0.11053487428025947,1.7015915294550445,-0.12404662482967482,-1.8583297383136181,0.7914040425755294
315,0.9759484021395547,-0.539139076682446,-30.0,-0.5848109010364404,-0.26896460159479274,-0.4861851656513566,-0.2313590088904232,0.40532912749101024,-0.11053487428025947,1.7015915294550445,-0.12404662482967482,-1.8583297383136181,1.3673736810601222
316,0.9759484021395547,-0.16758362124659526,-130.0,-0.0808268503269587,-0.26896460159479274,0.8708471052109477,1.4479475506298172,0.40532912749101024,-0.11053487428025947,-0.728301145938771,-0.05900462584420551,-1.8583297383136181,0.7914040425755294
317,0.9759484021395547,-0.3332435218404734,-848.0,-0.0808268503269587,-0.26896460159479274,-0.6382493457484826,-1.0314086717866737,0.40532912749101024,-0.11053487428025947,-0.728301145938771,-0.12041946954532935,-1.8583297383136181,1.3673736810601222
318,0.9573497270684258,-0.5769633665483614,-800.0,-0.2572212680752773,-0.8351947112893716,-0.32842097221704136,0.3734243052652602,-0.4324717029926405,0.5870327847829602,-0.26859172086426536,-0.12404662482967482,0.3024311798165168,-0.6923728462721285
319,0.9759484021395547,-0.5632305215225809,-784.0,-0.2824204706107514,-0.8351947112893716,-0.5790963649619839,-0.07546057682484415,-0.4324717029926405,0.5530050940969494,-0.26859172086426536,-0.12404662482967482,0.3024311798165188,-0.6350404492357226
320,0.9573497270684258,2.7762788333605295,-720.0,0.6751492257372639,0.8634956177943649,1.2296121307146266,0.3306733641138217,-0.4324717029926405,0.5870327847829602,-0.7200920490624405,-0.12404662482967482,0.3024311798165188,0.6874095245158112
321,0.9573497270684258,2.7568547244131736,-640.0,0.6751492257372639,0.8634956177943649,-0.025078143576579406,-0.567096400066387,-0.4324717029926405,0.5870327847829602,-0.7200920490624405,-0.12404662482967482,0.3024311798165198,0.20525312260257272
322,0.9573497270684258,2.7374306154658177,-640.0,0.6751492257372639,0.8634956177943649,0.08381616806757047,-0.49584483148065617,-0.4324717029926405,0.5870327847829602,-0.7200920490624405,-0.12404662482967482,0.3024311798165168,0.09810725551074201
323,0.9573497270684258,-0.2844057622014072,-480.0,-0.5848109010364404,0.8634956177943649,0.029319916523383595,0.3021727366795293,-0.4324717029926405,0.5870327847829602,1.7015915294550445,-0.12404662482967482,0.3024311798165188,0.6874095245158112
324,0.9573497270684258,-0.28163088949464204,-473.0,-0.5848109010364404,0.8634956177943649,-0.31435013825977653,-0.5727965255532455,-0.4324717029926405,0.5870327847829602,1.7015915294550445,-0.12404662482967482,0.3024311798165198,0.20525312260257272
325,0.9573497270684258,-0.28163088949464204,-601.796,-0.5848109010364404,0.8634956177943649,-0.2978048799080729,-0.5043950197109439,-0.4324717029926405,0.5870327847829602,1.7015915294550445,-0.12404662482967482,0.3024311798165168,0.09810725551074201
326,0.9573497270684258,-0.46366253905843446,-433.7,-0.3328188756816996,-1.1749327771061189,-0.6052815683503552,-0.7695933579870342,-0.4324717029926405,0.025575888463783385,-0.7200920490624405,-0.12404662482967482,0.3024311798165168,-1.062818214429245
327,0.9573497270684258,-0.4797568007576722,-683.824,-0.3328188756816996,-1.1749327771061189,-0.605281568350355,-0.7695933579870342,-0.4324717029926405,0.025575888463783385,-0.7200920490624405,-0.12404662482967482,0.3024311798165168,-1.062818214429245
328,0.9573497270684258,-0.5152751714042658,-234.671,-0.3328188756816996,-1.1749327771061189,-0.605281568350355,-0.7695933579870342,-0.4324717029926405,0.025575888463783385,-0.7200920490624405,-0.12404662482967482,0.3024311798165168,-1.062818214429245
329,0.9573497270684258,-0.5044531678478819,-91.66499999999996,-0.3328188756816996,-1.1749327771061189,-0.5985259969877603,-0.7695933579870342,-0.4324717029926405,0.025575888463783385,-0.7200920490624405,-0.12404662482967482,0.3024311798165168,-1.062818214429245
330,0.9573497270684258,-0.46366253905843446,-56.0,-0.3328188756816996,-1.1749327771061189,-0.6052815683503552,-0.7695933579870342,-0.4324717029926405,0.025575888463783385,-0.7200920490624405,-0.12404662482967482,0.3024311798165168,-1.062818214429245
331,0.9573497270684258,-0.5113903496147947,-60.14599999999996,-0.3328188756816996,-1.1749327771061189,-0.605281568350355,-0.7695933579870342,-0.4324717029926405,0.025575888463783385,-0.7200920490624405,-0.12404662482967482,0.3024311798165168,-1.062818214429245
332,0.9573497270684258,-0.5430238984719171,-180.44600000000003,-0.3328188756816996,-1.1749327771061189,-0.605281568350355,-0.7695933579870342,-0.4324717029926405,0.025575888463783385,-0.7200920490624405,-0.12404662482967482,0.3024311798165168,-1.062818214429245
333,0.9573497270684258,-0.5052856296599114,-533.957,-0.3328188756816996,-1.1749327771061189,-0.5985259969877603,-0.7695933579870342,-0.4324717029926405,0.025575888463783385,-0.7200920490624405,-0.12404662482967482,0.3024311798165168,-1.062818214429245
334,-1.1350012184335831,1.9300619773235563,-578.9,0.2971611877051526,1.6184690973871367,-0.5257366793846872,-0.8606528626395982,2.080930788458312,0.5870327847829602,-0.7447193396914319,-0.12404662482967482,2.421810225956357,-0.4309552259960317
335,-1.1350012184335831,2.1713565832857316,81.11000000000001,-0.3328188756816996,1.6184690973871367,-0.5330421228349349,-0.872338119887658,2.080930788458312,0.5870327847829602,-0.7447193396914319,-0.12404662482967482,2.421810225956357,-0.4309552259960317
336,-1.1350012184335831,2.119327720033885,79.29200000000003,-0.3328188756816996,1.6184690973871367,-0.5365082808160335,-0.8734781449850296,2.080930788458312,0.5870327847829602,-0.6954647584334491,-0.12404662482967482,2.421810225956357,-0.4309552259960317
337,-1.1350012184335831,2.084641811199321,113.716,-0.3328188756816996,1.6184690973871367,-0.5365082808160335,-0.8734781449850296,2.080930788458312,0.5870327847829602,-0.6790465646807883,-0.12404662482967482,2.421810225956357,-0.4309552259960317
338,-1.1350012184335831,1.668965879725905,-871.02,-0.3328188756816996,1.6184690973871367,-0.5385703011447325,-0.8663529881264566,2.080930788458312,0.5870327847829602,-0.6380010802991359,-0.12404662482967482,2.421810225956357,-0.4309552259960317
339,-1.1350012184335831,1.594374249008081,-1480.01,-0.3328188756816996,1.6184690973871367,-0.5401904599744246,-0.8669515013025768,2.080930788458312,0.5870327847829602,-0.5969555959174836,-0.12404662482967482,2.421810225956357,-0.4309552259960317
340,-1.1350012184335831,1.4800281269695152,-159.24,-0.3328188756816996,1.6184690973871367,-0.5451000321856126,-0.8606528626395982,2.080930788458312,0.5870327847829602,-0.5559101115358314,-0.12404662482967482,2.421810225956357,-0.4309552259960317
341,-1.1350012184335831,1.5347029700908972,-473.62,-0.3328188756816996,1.6184690973871367,-0.5467201910153046,-0.8692030508698857,2.080930788458312,0.5870327847829602,-0.5148646271541791,-0.12404662482967482,2.421810225956357,-0.4309552259960317
342,-1.1350012184335831,1.1418745080231734,50.0,-0.3328188756816996,1.6184690973871367,-0.5303713155520484,-0.8620493933838785,2.080930788458312,0.5870327847829602,-0.4327736583908745,-0.12404662482967482,2.421810225956357,-0.4309552259960317
343,-1.1350012184335831,0.3712281190513357,50.0,-0.3328188756816996,1.6184690973871367,-0.49629888440640385,-0.8207519842315888,2.080930788458312,0.5870327847829602,-0.26859172086426536,-0.12404662482967482,2.421810225956357,-0.4309552259960317
344,-1.1350012184335831,-0.2156531573767936,50.0,-0.3328188756816996,1.6184690973871367,-0.4960043100737326,-0.8093517332578719,2.080930788458312,0.5870327847829602,-0.10440978333765619,-0.12404662482967482,2.421810225956357,-0.4309552259960317
345,-1.1350012184335831,-0.5699401637275389,50.0,-0.5848109010364404,-0.26896460159479274,-0.28980227720383656,1.3281953243140536,-0.4324717029926405,-1.182407130889597,1.7015915294550445,-0.12404662482967482,0.3024311798165168,-0.4070089750650321
346,-1.1350012184335831,-0.5682752401034799,50.0,-0.5848109010364404,-0.26896460159479274,-0.2603448439367084,1.698703480959854,-0.4324717029926405,-1.182407130889597,-0.35068268962756993,-0.12404662482967482,0.3024311798165168,-0.4070089750650321
347,-1.1350012184335831,-0.5643904183140086,50.0,0.17116517502778217,-0.26896460159479274,-0.23088741066958046,1.698703480959854,-0.4324717029926405,-1.182407130889597,-0.35068268962756993,-0.12404662482967482,0.3024311798165168,-0.4070089750650321
348,0.17620537408100911,-0.19172501379545187,0.0,0.6751492257372639,0.8634956177943649,-0.6372527025896113,-0.9413951401609484,-0.4324717029926405,0.4168943313529066,-0.7200920490624405,-0.10678959221394865,0.3024311798165188,3.0792834398893296
349,0.9759484021395547,-0.5765998582237752,0.0,-0.20682286300432914,-0.8351947112893716,-0.2443887342503475,0.7182818972201975,-0.4324717029926405,0.5870327847829602,-0.5969555959174836,-0.12404662482967482,0.3024311798165168,-0.7795769749223403
350,0.9759484021395547,-0.5036207060358523,0.0,-0.20682286300432914,-0.8351947112893716,0.33862296582822776,0.765022926212437,-0.4324717029926405,0.5870327847829602,-0.5969555959174836,-0.12404662482967482,0.3024311798165168,-0.7795769749223403
351,-1.1350012184335831,-0.5993538144192493,0.0,-0.20682286300432914,-0.8351947112893716,-0.45093443717502674,0.5358778816407266,-0.4324717029926405,0.5870327847829602,-0.37530998025656126,-0.12404662482967482,0.3024311798165188,0.4909754348474546
352,-1.1350012184335831,-0.17202341757741946,0.0,-0.20682286300432914,-0.8351947112893716,1.0331310508228826,1.0386289495816434,-0.4324717029926405,0.5870327847829602,0.5670943411461754,-0.12404662482967482,0.3024311798165188,-0.196543878991793
353,0.9573497270684258,1.7966100242371008,0.0,0.6751492257372639,-1.1749327771061189,-0.5665794106095601,-0.8770407234143162,-0.4324717029926405,-2.2032378514699182,-0.7200920490624405,0.08629098830891606,0.3024311798165188,0.00744536797150035
354,0.9573497270684258,1.3375073349028104,0.0,0.6751492257372639,-1.1749327771061189,-0.5665794106095601,-0.8770407234143162,-0.4324717029926405,-2.2032378514699182,-0.7200920490624405,0.15640352602177968,0.3024311798165168,-1.0561123610233252
355,-0.5584422912285851,0.0902020532118852,0.0,-0.0808268503269587,-0.8351947112893716,-0.2210682662472045,-0.5414458353755239,-0.4324717029926405,0.6210604754689708,-0.6790465646807883,-0.12404662482967482,0.3024311798165168,-0.7662027390300268
356,-0.5584422912285851,0.11795078027953648,-204.0,-0.0808268503269587,-0.8351947112893716,-0.14742468307938444,-0.4587940158160761,-0.4324717029926405,0.6210604754689708,-0.6790465646807883,-0.12404662482967482,0.3024311798165188,-0.7976321933769638
357,-0.5584422912285851,0.13182514381336213,-254.0,-0.0808268503269587,-0.8351947112893716,-0.2701639883590845,-0.5984470902441086,-0.4324717029926405,0.6210604754689708,-0.6790465646807883,-0.12404662482967482,0.3024311798165168,-0.8447763748973693
358,-0.5584422912285851,-0.3399032163367097,-329.43,-0.0808268503269587,-0.8351947112893716,-0.4027224380611604,-0.5271955216583778,-0.4324717029926405,0.6210604754689708,-0.6790465646807883,-0.12404662482967482,0.3024311798165188,-0.6090554672953417
359,-0.5584422912285851,-0.3482278344570051,145.17999999999995,-0.0808268503269587,-0.8351947112893716,-0.3339884271045285,-0.4074928864343499,-0.4324717029926405,0.6210604754689708,-0.6790465646807883,-0.12404662482967482,0.3024311798165168,-0.676404298038778
360,-0.5584422912285851,-0.2566570351337559,-135.0,-0.0808268503269587,-0.8351947112893716,-0.3192597104709645,-0.4730443295332223,-0.4324717029926405,0.6210604754689708,-0.6790465646807883,-0.12404662482967482,0.3024311798165168,-0.7269159210963554
361,-0.5584422912285851,-0.25027482790819605,-161.0,-0.0808268503269587,-0.8351947112893716,-0.5107330267072966,-0.7837011685670088,-0.4324717029926405,0.6210604754689708,-0.6790465646807883,-0.12404662482967482,0.3024311798165168,-0.7662027390300268
362,-0.5584422912285851,-0.3260288528028841,-143.00000000000006,-0.0808268503269587,-0.8351947112893716,-0.6236531875646207,-1.0003059370676306,-0.4324717029926405,0.6210604754689708,-0.6790465646807883,-0.12404662482967482,0.3024311798165188,-0.7976321933769638
363,-0.5584422912285851,-0.4647724881411405,0.0,-0.0808268503269587,-0.8351947112893716,-0.6138340431422447,-0.968955246889909,-0.4324717029926405,0.6210604754689708,-0.6790465646807883,-0.12404662482967482,0.3024311798165168,-0.8233472014790031
364,0.9573497270684258,-0.44201853194566637,0.0,-0.5848109010364404,0.10852213820159314,-0.25052569951433246,-0.5100951451978023,3.756532449425613,0.5870327847829602,1.7015915294550445,-0.12404662482967482,-3.8532744579609552,0.22709163164297627
365,0.9573497270684258,-0.3884634887050995,0.0,-0.5848109010364404,0.10852213820159314,-0.09341938875631645,-0.25643956103260057,3.756532449425613,0.5870327847829602,1.7015915294550445,-0.12404662482967482,-3.8532744579609552,0.22709163164297627
366,0.9573497270684258,-0.3756990742539799,-182.0,-0.5848109010364404,0.10852213820159314,-0.4370894435394765,-0.1196365493479972,3.756532449425613,0.5870327847829602,1.7015915294550445,-0.12404662482967482,-3.8532744579609552,0.22709163164297627
367,0.9573497270684258,-0.33768331817129765,-126.0,-0.5848109010364404,0.10852213820159314,-0.22597783845839248,0.17962003871207236,3.756532449425613,0.5870327847829602,1.7015915294550445,-0.12404662482967482,-3.8532744579609552,0.22709163164297627
368,0.9573497270684258,-0.4392436592389013,-374.0,-0.5848109010364404,0.10852213820159314,0.18151665507021172,0.04851715251432756,3.756532449425613,0.5870327847829602,1.7015915294550445,-0.12404662482967482,-3.8532744579609552,0.22709163164297627
369,0.9573497270684258,0.5794121114145774,-685.0,0.6751492257372639,0.10852213820159314,-0.10323853317869242,-0.5328956471452362,3.756532449425613,0.5870327847829602,-0.7200920490624405,-0.12404662482967482,-3.8532744579609552,0.22709163164297627
370,0.9573497270684258,1.1488159908427815,-182.0,0.6751492257372639,0.10852213820159314,0.45645269889673973,-0.18233792970344043,3.756532449425613,0.5870327847829602,-0.7200920490624405,-0.12404662482967482,-3.8532744579609552,0.22709163164297627
371,0.9573497270684258,2.8190118730447127,-94.0,0.6751492257372639,0.10852213820159314,0.4613622711079278,-0.054085106249124895,3.756532449425613,0.5870327847829602,-0.7200920490624405,-0.12404662482967482,-3.8532744579609552,0.22709163164297627
372,0.9573497270684258,2.90753031239052,-314.0,0.6751492257372639,0.10852213820159314,0.9621386366491042,0.3078728621663879,3.756532449425613,0.5870327847829602,-0.7200920490624405,-0.12404662482967482,-3.8532744579609552,0.22709163164297627
373,0.9573497270684258,1.5664343332109334,-685.0,0.6751492257372639,0.10852213820159314,1.001415214338608,0.13116897207377531,3.756532449425613,0.5870327847829602,-0.7200920490624405,-0.12404662482967482,-3.8532744579609552,0.22709163164297627
374,0.9573497270684258,0.9201664798053352,-1304.348,0.6751492257372639,-0.6464513413911787,-0.027189259627390296,0.05706734074461518,1.243129957974661,0.5870327847829602,-0.7200920490624405,-0.12404662482967482,-0.5648302995521247,0.09810725551074174
375,0.9573497270684258,0.7933409227426349,-207.23848058252432,-0.5848109010364404,-0.6464513413911787,0.13890156827709985,-0.17749282303961067,1.243129957974661,0.5870327847829602,-0.5559101115358314,-0.12404662482967482,-0.5648302995521247,0.09810725551074174
376,0.9573497270684258,0.3771238910913995,-763.0,-0.5848109010364404,-0.6464513413911787,0.08823478305763967,-0.16808761598629426,1.243129957974661,0.5870327847829602,-0.35068268962756993,-0.12404662482967482,-0.5648302995521247,0.09810725551074174
377,0.9573497270684258,0.15850554488890886,-506.0,-0.5848109010364404,-0.6464513413911787,0.039139060945759654,-0.16808761598629426,1.243129957974661,0.5870327847829602,-0.14545526771930847,-0.12404662482967482,-0.5648302995521247,0.09810725551074174
378,0.9573497270684258,-0.003713513548580531,-379.0,-0.5848109010364404,-0.6464513413911787,-0.04000324309859094,-0.18233792970344043,1.243129957974661,0.5870327847829602,0.059772154188952965,-0.12404662482967482,-0.5648302995521247,0.09810725551074174
379,0.9573497270684258,-0.18012604588117365,-340.5,-0.5848109010364404,-0.6464513413911787,-0.07329014269044563,-0.17521277284486733,1.243129957974661,0.5870327847829602,0.2649995760972144,-0.12404662482967482,-0.5648302995521247,0.09810725551074174
380,0.9573497270684258,-0.34231874302794874,-178.86900000000003,-0.5848109010364404,-0.6464513413911787,-0.11487421931920799,-0.17267621700321537,1.243129957974661,0.5870327847829602,0.47022699800547585,-0.12404662482967482,-0.5648302995521247,0.09810725551074174
381,0.9573497270684258,-0.47653378610876446,-124.743,-0.5848109010364404,-0.6464513413911787,-0.18542477199397955,-0.2017183563587592,1.243129957974661,0.5870327847829602,0.8806818418219988,-0.12404662482967482,-0.5648302995521247,0.09810725551074174
382,0.9573497270684258,-0.4615358766159696,-179.2,-0.5848109010364404,-0.6464513413911787,-0.3241692826821525,-0.2402797052773568,1.243129957974661,0.5870327847829602,1.2911366856385216,-0.12404662482967482,-0.5648302995521247,0.09810725551074174
383,0.9573497270684258,-0.5125355395808766,-18.0,-0.5848109010364404,-0.6464513413911787,-0.34871714373809254,-0.2910108221103971,1.243129957974661,0.5870327847829602,1.7015915294550445,-0.12404662482967482,-0.5648302995521247,0.09810725551074174
384,0.9573497270684258,0.854866510346114,-108.70600000000002,-0.3328188756816996,-0.6464513413911787,0.34696923858724743,-0.1581123963842919,1.243129957974661,0.5870327847829602,-0.5559101115358314,-0.12404662482967482,-0.5648302995521252,-0.1051004234565236
385,0.9573497270684258,0.43003682878762106,-35.36850000000004,-0.3328188756816996,-0.6464513413911787,0.16187836622545962,-0.1385039647094988,1.243129957974661,0.5870327847829602,-0.35068268962756993,-0.12404662482967482,-0.5648302995521252,-0.1051004234565236
386,0.9573497270684258,0.1963833897980648,0.0,0.6751492257372639,-0.6464513413911787,0.10360174407865806,-0.1701681617889976,1.243129957974661,0.5870327847829602,-0.14545526771930847,-0.12404662482967482,-0.5648302995521252,-0.1051004234565236
387,0.9573497270684258,-0.0017572282903111913,0.0,-0.3328188756816996,-0.6464513413911787,0.028092523470586665,-0.17264771637578102,1.243129957974661,0.5870327847829602,0.059772154188952965,-0.12404662482967482,-0.5648302995521252,-0.1051004234565236
388,0.9573497270684258,-0.1858839067477113,14.0,-0.3328188756816996,-0.6464513413911787,-0.03484819227684352,-0.1737877414731527,1.243129957974661,0.5870327847829602,0.2649995760972144,-0.12404662482967482,-0.5648302995521252,-0.1051004234565236
389,0.9573497270684258,-0.3414182968346035,-1217.0,0.6751492257372639,-0.6464513413911787,-0.08517130744152056,-0.17749282303961067,1.243129957974661,0.5870327847829602,0.47022699800547585,-0.12404662482967482,-0.5648302995521252,-0.1051004234565236
390,0.9573497270684258,-0.4832253916411286,-207.23848058252432,0.6751492257372639,-0.6464513413911787,-0.26270143859807876,-0.2067344667871947,1.243129957974661,0.5870327847829602,0.8806818418219988,-0.12404662482967482,-0.5648302995521252,-0.1051004234565236
391,0.9573497270684258,-0.603516123479397,-207.23848058252432,-0.3328188756816996,-0.6464513413911787,-0.19843513835362778,-0.25056843178113625,1.243129957974661,0.5870327847829602,1.2911366856385216,-0.12404662482967482,-0.5648302995521252,-0.1051004234565236
392,-1.1350012184335831,2.6982827113187753,0.0,0.6751492257372639,0.48600887799797904,0.6636857419309853,0.474886538931341,-0.4324717029926405,0.34883894998088516,-0.7200920490624405,-0.12404662482967482,0.3024311798165188,0.9993930786949663
393,0.8457576766416519,1.8378973552410593,0.0,0.6751492257372639,0.48600887799797904,0.6636857419309853,0.40876508328378275,-0.4324717029926405,0.025575888463783385,-0.7200920490624405,-0.12404662482967482,0.3024311798165188,0.9993930786949663
394,0.8457576766416519,-0.14998093874396,0.0,0.6751492257372639,0.48600887799797904,0.6124298080461827,0.2538898237430947,-0.4324717029926405,0.025575888463783385,-0.7200920490624405,-0.12404662482967482,0.3024311798165188,0.9993930786949663
395,0.8457576766416519,-0.3611587412705306,0.0,0.6751492257372639,0.48600887799797904,0.46381705721352184,0.20058225018999423,-0.4324717029926405,0.025575888463783385,-0.7200920490624405,-0.12404662482967482,0.3024311798165188,0.9993930786949663
